{"learner":{"attributes":{},"feature_names":[],"feature_types":[],"gradient_booster":{"model":{"gbtree_model_param":{"num_parallel_tree":"1","num_trees":"500"},"iteration_indptr":[0,5,10,15,20,25,30,35,40,45,50,55,60,65,70,75,80,85,90,95,100,105,110,115,120,125,130,135,140,145,150,155,160,165,170,175,180,185,190,195,200,205,210,215,220,225,230,235,240,245,250,255,260,265,270,275,280,285,290,295,300,305,310,315,320,325,330,335,340,345,350,355,360,365,370,375,380,385,390,395,400,405,410,415,420,425,430,435,440,445,450,455,460,465,470,475,480,485,490,495,500],"tree_info":[0,1,2,3,4,0,1,2,3,4,0,1,2,3,4,0,1,2,3,4,0,1,2,3,4,0,1,2,3,4,0,1,2,3,4,0,1,2,3,4,0,1,2,3,4,0,1,2,3,4,0,1,2,3,4,0,1,2,3,4,0,1,2,3,4,0,1,2,3,4,0,1,2,3,4,0,1,2,3,4,0,1,2,3,4,0,1,2,3,4,0,1,2,3,4,0,1,2,3,4,0,1,2,3,4,0,1,2,3,4,0,1,2,3,4,0,1,2,3,4,0,1,2,3,4,0,1,2,3,4,0,1,2,3,4,0,1,2,3,4,0,1,2,3,4,0,1,2,3,4,0,1,2,3,4,0,1,2,3,4,0,1,2,3,4,0,1,2,3,4,0,1,2,3,4,0,1,2,3,4,0,1,2,3,4,0,1,2,3,4,0,1,2,3,4,0,1,2,3,4,0,1,2,3,4,0,1,2,3,4,0,1,2,3,4,0,1,2,3,4,0,1,2,3,4,0,1,2,3,4,0,1,2,3,4,0,1,2,3,4,0,1,2,3,4,0,1,2,3,4,0,1,2,3,4,0,1,2,3,4,0,1,2,3,4,0,1,2,3,4,0,1,2,3,4,0,1,2,3,4,0,1,2,3,4,0,1,2,3,4,0,1,2,3,4,0,1,2,3,4,0,1,2,3,4,0,1,2,3,4,0,1,2,3,4,0,1,2,3,4,0,1,2,3,4,0,1,2,3,4,0,1,2,3,4,0,1,2,3,4,0,1,2,3,4,0,1,2,3,4,0,1,2,3,4,0,1,2,3,4,0,1,2,3,4,0,1,2,3,4,0,1,2,3,4,0,1,2,3,4,0,1,2,3,4,0,1,2,3,4,0,1,2,3,4,0,1,2,3,4,0,1,2,3,4,0,1,2,3,4,0,1,2,3,4,0,1,2,3,4,0,1,2,3,4,0,1,2,3,4,0,1,2,3,4,0,1,2,3,4,0,1,2,3,4,0,1,2,3,4,0,1,2,3,4,0,1,2,3,4,0,1,2,3,4,0,1,2,3,4,0,1,2,3,4,0,1,2,3,4,0,1,2,3,4,0,1,2,3,4,0,1,2,3,4,0,1,2,3,4],"trees":[{"base_weights":[-0E0,1.2490593E0,-3.2415542E-1,2.3173969E0,-1.4143094E-1,-4.9244773E-1,6.9009584E-1,7.239945E-1,2.6315792E-2,6.2231755E-1,-1.7557251E-1,1.5384614E0,-5.630198E-1,-1.5328467E-1,5.3305787E-1,-1.05263166E-1,6.131387E-1,4.2105266E-1,-5.84067E-1,-5.9999996E-1,2.8947368E-1,2.8947368E-1,-1.8484649E-1],"categories":[],"categories_nodes":[],"categories_segments":[],"categories_sizes":[],"default_left":[0,0,0,0,0,0,0,0,0,0,0,0,0,0,0,0,0,0,0,0,0,0,0],"id":0,"left_children":[1,3,5,7,9,11,-1,-1,-1,13,-1,15,17,-1,-1,-1,-1,-1,19,21,-1,-1,-1],"loss_changes":[1.0446146E2,7.929763E1,9.16063E1,6.22995E0,8.5128E0,2.8573872E1,0E0,0E0,0E0,1.3102205E1,0E0,7.1712112E0,8.582821E0,0E0,0E0,0E0,0E0,0E0,5.1763153E0,5.2715607E0,0E0,0E0,0E0],"parents":[2147483647,0,0,1,1,2,2,3,3,4,4,5,5,9,9,11,11,12,12,18,18,19,19],"right_children":[2,4,6,8,10,12,-1,-1,-1,14,-1,16,18,-1,-1,-1,-1,-1,20,22,-1,-1,-1],"split_conditions":[-1.4476917E1,-1.6433908E0,-4.1406666E1,1.1764415E1,2.7727E1,-1.261303E1,6.9009584E-1,7.239945E-1,2.6315792E-2,-2.0599796E1,-1.7557251E-1,-1.3692844E1,-7.7848387E0,-1.5328467E-1,5.3305787E-1,-1.05263166E-1,6.131387E-1,4.2105266E-1,4.1837845E0,8.637285E0,2.8947368E-1,2.8947368E-1,-1.8484649E-1],"split_indices":[12,138,121,190,131,141,0,0,0,9,0,2,133,0,0,0,0,0,10,190,0,0,0],"split_type":[0,0,0,0,0,0,0,0,0,0,0,0,0,0,0,0,0,0,0,0,0,0,0],"sum_hessian":[2.5600003E2,5.2160004E1,2.0384001E2,2.9120003E1,2.304E1,1.9232E2,1.152E1,2.7840002E1,1.2800001E0,8.320001E0,1.4720001E1,5.76E0,1.8656001E2,4.4800005E0,3.8400002E0,1.2800001E0,4.4800005E0,1.2800001E0,1.8528001E2,1.8400002E2,1.2800001E0,1.2800001E0,1.8272002E2],"tree_param":{"num_deleted":"0","num_feature":"196","num_nodes":"23","size_leaf_vector":"1"}},{"base_weights":[-0E0,-5.8392584E-1,1.4980651E0,4.9315068E-1,-6.1615497E-1,-4.334038E-1,2.1418073E0,-1.8647225E-1,2.6315792E-2,-1.7687075E-1,2.8947368E-1,2.387017E0,5.9171595E-2,1.849315E-1,7.339606E-1,-1.5328467E-1,4.2105266E-1],"categories":[],"categories_nodes":[],"categories_segments":[],"categories_sizes":[],"default_left":[0,0,0,0,0,0,0,0,0,0,0,0,0,0,0,0,0],"id":1,"left_children":[1,3,5,-1,7,9,11,-1,-1,-1,-1,13,15,-1,-1,-1,-1],"loss_changes":[2.2568782E2,1.4341591E1,9.089841E1,0E0,7.553177E-1,4.7004147E0,2.7660324E1,0E0,0E0,0E0,0E0,3.6218567E0,5.8982162E0,0E0,0E0,0E0,0E0],"parents":[2147483647,0,0,1,1,2,2,4,4,5,5,6,6,11,11,12,12],"right_children":[2,4,6,-1,8,10,12,-1,-1,-1,-1,14,16,-1,-1,-1,-1],"split_conditions":[-3.1583045E0,3.206418E-1,-1.1050758E0,4.9315068E-1,7.6956975E-1,-3.1011942E1,1.5034389E2,-1.8647225E-1,2.6315792E-2,-1.7687075E-1,2.8947368E-1,-2.5773406E-1,-5.3575487E0,1.849315E-1,7.339606E-1,-1.5328467E-1,4.2105266E-1],"split_indices":[141,176,3,0,180,58,129,0,0,0,0,160,0,0,0,0,0],"split_type":[0,0,0,0,0,0,0,0,0,0,0,0,0,0,0,0,0],"sum_hessian":[2.5600003E2,1.8464001E2,7.136001E1,1.9200001E0,1.8272002E2,1.7920002E1,5.3440002E1,1.8144002E2,1.2800001E0,1.6640001E1,1.2800001E0,4.7680004E1,5.76E0,1.9200001E0,4.5760002E1,4.4800005E0,1.2800001E0],"tree_param":{"num_deleted":"0","num_feature":"196","num_nodes":"17","size_leaf_vector":"1"}},{"base_weights":[-0E0,-4.265226E-1,2.1184087E0,5.4091537E-1,-5.7350737E-1,2.291052E0,-1.3483146E-1,-1.9801979E-1,2.033195E0,4.2592594E-1,-6.053714E-1,-1.2328767E-1,7.306501E-1,4.2592594E-1,-4.7884184E-1,6.602871E-1,1.5789473E-1,2.6315792E-2,-6.10687E-1,1.5789473E-1,-1.76259E-1,-1.8644068E-1,-2.7027026E-1,1.5789473E-1,-1.5686274E-1],"categories":[],"categories_nodes":[],"categories_segments":[],"categories_sizes":[],"default_left":[0,0,0,0,0,0,0,0,0,0,0,0,0,0,0,0,0,0,0,0,0,0,0,0,0],"id":2,"left_children":[1,3,5,7,9,11,-1,13,15,-1,17,-1,-1,-1,19,-1,-1,-1,21,-1,-1,-1,23,-1,-1],"loss_changes":[2.3311574E2,3.08488E1,2.0198883E1,3.2204422E1,1.2731396E1,1.6878342E1,0E0,9.856824E0,1.2785645E0,0E0,7.33963E-1,0E0,0E0,0E0,2.2713332E0,0E0,0E0,0E0,5.051727E-1,0E0,0E0,0E0,1.764241E0,0E0,0E0],"parents":[2147483647,0,0,1,1,2,2,3,3,4,4,5,5,7,7,8,8,10,10,14,14,18,18,22,22],"right_children":[2,4,6,8,10,12,-1,14,16,-1,18,-1,-1,-1,20,-1,-1,-1,22,-1,-1,-1,24,-1,-1],"split_conditions":[5.2776533E-1,-4.9610134E1,-4.025742E0,-1.8030066E1,-4.645014E0,1.2609064E1,-1.3483146E-1,-9.3101805E-1,8.752402E0,4.2592594E-1,-5.642774E0,-1.2328767E-1,7.306501E-1,4.2592594E-1,-4.374778E0,6.602871E-1,1.5789473E-1,2.6315792E-2,1.3984163E1,1.5789473E-1,-1.76259E-1,-1.8644068E-1,-1.4559808E1,1.5789473E-1,-1.5686274E-1],"split_indices":[147,107,142,14,154,191,0,156,4,0,135,0,0,0,140,0,0,0,5,0,0,0,14,0,0],"split_type":[0,0,0,0,0,0,0,0,0,0,0,0,0,0,0,0,0,0,0,0,0,0,0,0,0],"sum_hessian":[2.5600003E2,2.1376001E2,4.224E1,2.7840002E1,1.8592001E2,3.9680004E1,2.5600002E0,1.92E1,8.64E0,2.2400002E0,1.8368001E2,1.9200001E0,3.7760002E1,2.2400002E0,1.6960001E1,7.3600006E0,1.2800001E0,1.2800001E0,1.8240001E2,1.2800001E0,1.5680001E1,1.7600002E2,6.4000006E0,1.2800001E0,5.1200004E0],"tree_param":{"num_deleted":"0","num_feature":"196","num_nodes":"25","size_leaf_vector":"1"}},{"base_weights":[-0E0,1.9710467E0,-1.474754E-1,-1.2962963E-1,7.0229006E-1,6.885246E-1,-2.7704945E-1,-5.0873584E-1,1.0102156E0,-5.4211754E-1,4.5197737E-1,-1.3292433E-1,6.8705034E-1,-5.624865E-1,6.7415726E-1,-1.4876033E-1,5.185185E-1,-1.7422096E-1,8.695652E-1,-6.521739E-2,-1.809409E-1,-1.05263166E-1,4.2105266E-1,-1.3483146E-1,5.56701E-1],"categories":[],"categories_nodes":[],"categories_segments":[],"categories_sizes":[],"default_left":[0,0,0,0,0,0,0,0,0,0,0,0,0,0,0,0,0,0,0,0,0,0,0,0,0],"id":3,"left_children":[1,3,5,-1,-1,-1,7,9,11,13,15,17,-1,19,21,-1,-1,-1,23,-1,-1,-1,-1,-1,-1],"loss_changes":[7.499568E1,1.6977455E1,7.66066E1,0E0,0E0,0E0,6.876359E1,6.4858856E0,5.186634E1,5.0496635E0,9.422766E0,9.286002E0,0E0,2.4775314E0,3.1539521E0,0E0,0E0,0E0,9.210361E0,0E0,0E0,0E0,0E0,0E0,0E0],"parents":[2147483647,0,0,1,1,2,2,6,6,7,7,8,8,9,9,10,10,11,11,13,13,14,14,18,18],"right_children":[2,4,6,-1,-1,-1,8,10,12,14,16,18,-1,20,22,-1,-1,-1,24,-1,-1,-1,-1,-1,-1],"split_conditions":[-2.8824685E0,7.4969405E-1,2.597252E-1,-1.2962963E-1,7.0229006E-1,6.885246E-1,-2.1559553E1,1.6907269E-1,5.7125044E-1,1.6116261E2,5.4983012E-2,2.57891E0,6.8705034E-1,-2.4856343E0,-1.1655924E1,-1.4876033E-1,5.185185E-1,-1.7422096E-1,1.4622802E1,-6.521739E-2,-1.809409E-1,-1.05263166E-1,4.2105266E-1,-1.3483146E-1,5.56701E-1],"split_indices":[143,177,178,0,0,0,27,185,175,129,163,135,0,143,15,0,0,0,192,0,0,0,0,0,0],"split_type":[0,0,0,0,0,0,0,0,0,0,0,0,0,0,0,0,0,0,0,0,0,0,0,0,0],"sum_hessian":[2.5600003E2,1.6960001E1,2.3904002E2,2.2400002E0,1.4720001E1,1.1200001E1,2.2784001E2,1.936E2,3.424E1,1.8752002E2,6.0800004E0,1.8560001E1,1.5680001E1,1.8496E2,2.5600002E0,3.8400002E0,2.2400002E0,1.3120001E1,5.4400005E0,2.0160002E1,1.6480002E2,1.2800001E0,1.2800001E0,2.5600002E0,2.88E0],"tree_param":{"num_deleted":"0","num_feature":"196","num_nodes":"25","size_leaf_vector":"1"}},{"base_weights":[-0E0,-5.9656215E-1,1.9601328E0,1.4814815E-1,-6.11577E-1,2.3563218E0,-1.6666666E-1,2.6315792E-2,-6.1663574E-1,-1.05263166E-1,7.293794E-1,2.6315792E-2,-1.8652849E-1],"categories":[],"categories_nodes":[],"categories_segments":[],"categories_sizes":[],"default_left":[0,0,0,0,0,0,0,0,0,0,0,0,0],"id":4,"left_children":[1,3,5,-1,7,9,-1,-1,11,-1,-1,-1,-1],"loss_changes":[3.0169E2,3.5403976E0,6.1309677E1,0E0,7.45903E-1,1.1443695E1,0E0,0E0,7.5598145E-1,0E0,0E0,0E0,0E0],"parents":[2147483647,0,0,1,1,2,2,4,4,5,5,8,8],"right_children":[2,4,6,-1,8,10,-1,-1,12,-1,-1,-1,-1],"split_conditions":[1.9853798E0,9.068187E1,-3.3304527E0,1.4814815E-1,-3.2588163E-1,-4.9412003E1,-1.6666666E-1,2.6315792E-2,8.437511E0,-1.05263166E-1,7.293794E-1,2.6315792E-2,-1.8652849E-1],"split_indices":[137,129,6,0,160,56,0,0,190,0,0,0,0],"split_type":[0,0,0,0,0,0,0,0,0,0,0,0,0],"sum_hessian":[2.5600003E2,1.9680002E2,5.9200005E1,2.2400002E0,1.9456001E2,5.1200005E1,8.000001E0,1.2800001E0,1.9328001E2,1.2800001E0,4.9920002E1,1.2800001E0,1.9200002E2],"tree_param":{"num_deleted":"0","num_feature":"196","num_nodes":"13","size_leaf_vector":"1"}},{"base_weights":[3.9030334E-3,7.975146E-1,-2.8025773E-1,1.2525654E0,-1.1498079E-1,-4.520514E-1,1.229674E0,3.8613516E-1,2.3440287E-2,4.7801438E-1,-1.6547467E-1,1.0066057E0,-5.280681E-1,3.8364112E-1,1.15154244E-1,-1.4109586E-1,3.3569324E-1,3.6965945E-1,-9.044594E-2,3.0716324E-1,-5.519104E-1,-5.701447E-1,2.1906765E-1,-1.7673844E-1,8.39466E-2],"categories":[],"categories_nodes":[],"categories_segments":[],"categories_sizes":[],"default_left":[0,0,0,0,0,0,0,0,0,0,0,0,0,0,0,0,0,0,0,0,0,0,0,0,0],"id":5,"left_children":[1,3,5,7,9,11,13,-1,-1,15,-1,17,19,-1,-1,-1,-1,-1,-1,-1,21,23,-1,-1,-1],"loss_changes":[5.534616E1,2.7011967E1,4.743561E1,1.6548233E0,6.075198E0,1.8604881E1,2.8748894E-1,0E0,0E0,6.637762E0,0E0,2.855524E0,6.3217735E0,0E0,0E0,0E0,0E0,0E0,0E0,0E0,4.0137215E0,2.6218872E0,0E0,0E0,0E0],"parents":[2147483647,0,0,1,1,2,2,3,3,4,4,5,5,6,6,9,9,11,11,12,12,20,20,21,21],"right_children":[2,4,6,8,10,12,14,-1,-1,16,-1,18,20,-1,-1,-1,-1,-1,-1,-1,22,24,-1,-1,-1],"split_conditions":[-1.4476917E1,-1.6433908E0,-4.25026E1,1.1764415E1,2.7727E1,-7.8448386E0,-1.5385007E0,3.8613516E-1,2.3440287E-2,-2.0599796E1,-1.6547467E-1,-1.1570093E1,-7.7848387E0,3.8364112E-1,1.15154244E-1,-1.4109586E-1,3.3569324E-1,3.6965945E-1,-9.044594E-2,3.0716324E-1,4.1837845E0,1.4891663E-1,2.1906765E-1,-1.7673844E-1,8.39466E-2],"split_indices":[12,138,124,190,131,142,140,0,0,9,0,2,133,0,0,0,0,0,0,0,10,194,0,0,0],"split_type":[0,0,0,0,0,0,0,0,0,0,0,0,0,0,0,0,0,0,0,0,0,0,0,0,0],"sum_hessian":[2.4343196E2,6.3705902E1,1.7972606E2,4.22591E1,2.1446802E1,1.6199551E2,1.773055E1,4.0958164E1,1.3009354E0,9.054315E0,1.2392488E1,7.41772E0,1.5457779E2,1.6273413E1,1.4571372E0,3.7589734E0,5.295341E0,6.376119E0,1.0416006E0,1.7041986E0,1.528736E2,1.5127747E2,1.5961225E0,1.4827278E2,3.0046878E0],"tree_param":{"num_deleted":"0","num_feature":"196","num_nodes":"25","size_leaf_vector":"1"}},{"base_weights":[-2.6052766E-3,-5.5248904E-1,9.0568787E-1,3.3547336E-1,-1.7670718E-1,-3.5812888E-1,1.1863893E0,-1.6657417E-1,5.317324E-1,-1.3089344E-1,1.2487108E0,2.287046E-1,1.6715687E-2,-3.101655E-3,1.2772353E0,3.4727752E-2,1.2932932E0,3.8642876E-2,3.9268923E-1],"categories":[],"categories_nodes":[],"categories_segments":[],"categories_sizes":[],"default_left":[0,0,0,0,0,0,0,0,0,0,0,0,0,0,0,0,0,0,0],"id":6,"left_children":[1,3,5,-1,-1,7,9,-1,11,-1,13,-1,-1,-1,15,-1,17,-1,-1],"loss_changes":[1.2297458E2,1.0020058E1,3.3364075E1,0E0,0E0,3.389934E0,8.25164E0,0E0,3.648213E-1,0E0,2.6581726E0,0E0,0E0,0E0,1.1936188E0,0E0,1.1260071E0,0E0,0E0],"parents":[2147483647,0,0,1,1,2,2,5,5,6,6,8,8,10,10,14,14,16,16],"right_children":[2,4,6,-1,-1,8,10,-1,12,-1,14,-1,-1,-1,16,-1,18,-1,-1],"split_conditions":[-3.2442133E0,3.206418E-1,3.0214093E0,3.3547336E-1,-1.7670718E-1,-4.145672E-1,-5.843113E0,-1.6657417E-1,-4.3728495E0,-1.3089344E-1,-3.12828E-1,2.287046E-1,1.6715687E-2,-3.101655E-3,-4.7310022E-1,3.4727752E-2,1.39977665E1,3.8642876E-2,3.9268923E-1],"split_indices":[141,176,135,0,0,154,3,0,137,0,160,0,0,0,159,0,133,0,0],"split_type":[0,0,0,0,0,0,0,0,0,0,0,0,0,0,0,0,0,0,0],"sum_hessian":[2.4421536E2,1.5236487E2,9.185049E1,2.6269522E0,1.4973792E2,1.6642822E1,7.5207664E1,1.3932568E1,2.710254E0,2.559642E0,7.264802E1,1.4205205E0,1.2897334E0,1.6235476E0,7.1024475E1,1.0804963E0,6.994398E1,1.0511869E0,6.889279E1],"tree_param":{"num_deleted":"0","num_feature":"196","num_nodes":"19","size_leaf_vector":"1"}},{"base_weights":[-1.8367527E-5,-3.7997925E-1,1.160278E0,4.3112904E-1,-5.3493965E-1,1.2273157E0,-1.24330685E-1,-1.6209292E-1,8.960346E-1,2.9183772E-1,-5.705069E-1,-1.1420768E-1,3.8471216E-1,1.4106762E-1,3.900164E-1,-2.7929384E-1,-1.7671563E-1,-1.4464277E-1,2.8771E-1,4.9325034E-1,-1.587912E-1,-9.3660705E-2,3.1589887E-1],"categories":[],"categories_nodes":[],"categories_segments":[],"categories_sizes":[],"default_left":[0,0,0,0,0,0,0,0,0,0,0,0,0,0,0,0,0,0,0,0,0,0,0],"id":7,"left_children":[1,3,5,7,9,11,-1,-1,13,-1,15,-1,-1,17,-1,19,-1,-1,-1,21,-1,-1,-1],"loss_changes":[1.0847556E2,2.352759E1,6.9161835E0,1.4161634E1,8.924274E0,5.664879E0,0E0,0E0,6.178961E0,0E0,6.6231537E-1,0E0,0E0,4.740847E0,0E0,2.3987658E0,0E0,0E0,0E0,1.7821352E0,0E0,0E0,0E0],"parents":[2147483647,0,0,1,1,2,2,3,3,4,4,5,5,8,8,10,10,13,13,15,15,19,19],"right_children":[2,4,6,8,10,12,-1,-1,14,-1,16,-1,-1,18,-1,20,-1,-1,-1,22,-1,-1,-1],"split_conditions":[5.2776533E-1,-4.9610134E1,-4.025742E0,1.1487227E2,-4.645014E0,1.2609064E1,-1.24330685E-1,-1.6209292E-1,5.4442567E-1,2.9183772E-1,-7.0282135E0,-1.1420768E-1,3.8471216E-1,-1.0654312E1,3.900164E-1,-3.2103207E0,-1.7671563E-1,-1.4464277E-1,2.8771E-1,-1.415535E1,-1.587912E-1,-9.3660705E-2,3.1589887E-1],"split_indices":[147,107,142,129,154,191,0,0,177,0,140,0,0,11,0,142,0,0,0,2,0,0,0],"split_type":[0,0,0,0,0,0,0,0,0,0,0,0,0,0,0,0,0,0,0,0,0,0,0],"sum_hessian":[2.4405042E2,1.8435304E2,5.969736E1,2.9284925E1,1.5506812E2,5.7471336E1,2.226025E0,9.426235E0,1.985869E1,2.966451E0,1.5210167E2,1.7068644E0,5.5764473E1,7.3930044E0,1.2465685E1,1.0067845E1,1.4203383E2,4.429055E0,2.9639492E0,2.2236698E0,7.8441753E0,1.0930523E0,1.1306175E0],"tree_param":{"num_deleted":"0","num_feature":"196","num_nodes":"23","size_leaf_vector":"1"}},{"base_weights":[5.2560475E-3,-2.890652E-1,5.526602E-1,9.139451E-1,-3.7677228E-1,1.1367111E0,-4.8790097E-1,3.5487223E-1,-1.1309365E-1,-4.2496789E-1,5.39497E-1,-1.9841991E-1,1.2741386E0,-1.7228632E-1,2.4667187E-1,2.9686186E-1,-4.9427775E-1,-1.3311063E-1,3.6293602E-1,1.4873408E-1,-1.4219221E-1,1.7663425E-2,1.3049157E0,8.860135E-1,-1.5060402E-1,-7.3964156E-2,-5.408981E-1,3.976625E-1,1.1373757E-1,-1.0281915E-1,3.574254E-1,-1.6455814E-1,3.509886E-1,1.5008129E-1,-1.6678047E-1],"categories":[],"categories_nodes":[],"categories_segments":[],"categories_sizes":[],"default_left":[0,0,0,0,0,0,0,0,0,0,0,0,0,0,0,0,0,0,0,0,0,0,0,0,0,0,0,0,0,0,0,0,0,0,0],"id":8,"left_children":[1,3,5,7,9,11,13,-1,-1,15,17,19,21,-1,-1,23,25,-1,-1,-1,-1,-1,27,29,-1,31,33,-1,-1,-1,-1,-1,-1,-1,-1],"loss_changes":[3.9562313E1,1.7195335E1,5.2734688E1,4.3153353E0,6.8339424E0,1.0398163E1,4.044825E0,0E0,0E0,7.283369E0,5.752617E0,1.3876034E0,1.8032684E0,0E0,0E0,6.6206636E0,2.517664E0,0E0,0E0,0E0,0E0,0E0,4.32724E-1,3.3781252E0,0E0,9.018735E0,2.115097E0,0E0,0E0,0E0,0E0,0E0,0E0,0E0,0E0],"parents":[2147483647,0,0,1,1,2,2,3,3,4,4,5,5,6,6,9,9,10,10,11,11,12,12,15,15,16,16,22,22,23,23,25,25,26,26],"right_children":[2,4,6,8,10,12,14,-1,-1,16,18,20,22,-1,-1,24,26,-1,-1,-1,-1,-1,28,30,-1,32,34,-1,-1,-1,-1,-1,-1,-1,-1],"split_conditions":[5.9061193E-1,-2.8824685E0,5.115442E0,1.0805078E2,1.5816147E2,-1.3993631E1,1.2656016E1,3.5487223E-1,-1.1309365E-1,1.334194E1,4.859912E0,3.996899E-1,-2.0125537E-1,-1.7228632E-1,2.4667187E-1,4.773161E0,-2.4856343E0,-1.3311063E-1,3.6293602E-1,1.4873408E-1,-1.4219221E-1,1.7663425E-2,-4.205364E1,3.6393273E-1,-1.5060402E-1,-1.7786318E-1,2.8972974E-1,3.976625E-1,1.1373757E-1,-1.0281915E-1,3.574254E-1,-1.6455814E-1,3.509886E-1,1.5008129E-1,-1.6678047E-1],"split_indices":[175,143,134,129,129,11,5,0,0,191,6,181,158,0,0,188,143,0,0,0,0,0,118,182,0,154,177,0,0,0,0,0,0,0,0],"split_type":[0,0,0,0,0,0,0,0,0,0,0,0,0,0,0,0,0,0,0,0,0,0,0,0,0,0,0,0,0,0,0,0,0,0,0],"sum_hessian":[2.435652E2,1.5870607E2,8.4859116E1,1.0144284E1,1.485618E2,5.429293E1,3.0566187E1,8.46441E0,1.6798745E0,1.4164737E2,6.9144297E0,5.0255017E0,4.926743E1,2.9202332E1,1.363855E0,1.2121765E1,1.295256E2,2.9400005E0,3.974429E0,1.2008935E0,3.8246083E0,1.288854E0,4.7978577E1,6.913872E0,5.2078934E0,1.3190543E1,1.1633505E2,4.651056E1,1.4680163E0,1.3520211E0,5.5618505E0,9.952615E0,3.2379284E0,1.1968056E0,1.1513825E2],"tree_param":{"num_deleted":"0","num_feature":"196","num_nodes":"35","size_leaf_vector":"1"}},{"base_weights":[-6.48761E-3,-5.6053436E-1,1.0955845E0,-5.7806796E-1,5.0712967E-1,1.2474513E0,-1.563606E-1,2.354648E-1,-1.7701116E-1,3.1700203E-1,-9.172966E-2,-9.835467E-2,1.2764969E0,2.0337708E-1,-9.202044E-2,3.8637134E-1,1.1615385E-1],"categories":[],"categories_nodes":[],"categories_segments":[],"categories_sizes":[],"default_left":[0,0,0,0,0,0,0,0,0,0,0,0,0,0,0,0,0],"id":9,"left_children":[1,3,5,7,9,11,-1,13,-1,-1,-1,-1,15,-1,-1,-1,-1],"loss_changes":[1.5083778E2,3.3703651E0,2.0942642E1,1.7182541E0,1.7475097E0,3.8887634E0,0E0,9.435837E-1,0E0,0E0,0E0,0E0,2.589264E-1,0E0,0E0,0E0,0E0],"parents":[2147483647,0,0,1,1,2,2,3,3,4,4,5,5,7,7,12,12],"right_children":[2,4,6,8,10,12,-1,14,-1,-1,-1,-1,16,-1,-1,-1,-1],"split_conditions":[1.9853798E0,1.5737294E1,-3.3304527E0,6.8178906E0,-1.7359856E1,-4.9412003E1,-1.563606E-1,-2.0731611E0,-1.7701116E-1,3.1700203E-1,-9.172966E-2,-9.835467E-2,-1.771864E1,2.0337708E-1,-9.202044E-2,3.8637134E-1,1.1615385E-1],"split_indices":[137,190,6,189,14,56,0,4,0,0,0,0,15,0,0,0,0],"split_type":[0,0,0,0,0,0,0,0,0,0,0,0,0,0,0,0,0],"sum_hessian":[2.4502655E2,1.6338106E2,8.1645485E1,1.6119246E2,2.1885984E0,7.484376E1,6.8017325E0,2.0664363E0,1.5912602E2,1.1268929E0,1.0617055E0,1.1687472E0,7.367501E1,1.0000392E0,1.0663971E0,7.229941E1,1.375601E0],"tree_param":{"num_deleted":"0","num_feature":"196","num_nodes":"17","size_leaf_vector":"1"}},{"base_weights":[5.8354745E-3,-3.3367863E-1,4.78071E-1,-5.31707E-1,3.8103402E-1,7.7236766E-1,-1.6350862E-1,-5.581212E-1,2.3523857E-1,9.34541E-1,-3.445665E-1,8.875452E-1,-1.4792347E-1,1.8383976E-2,-1.697562E-1,9.974828E-2,2.9125008E-1,-1.5679877E-1,3.446235E-1,-3.0590262E-2,9.559366E-1,1.8299485E-2,1.3661909E-1,1.9257593E-1,-1.2992753E-1,2.9685E-1,-9.804364E-2],"categories":[],"categories_nodes":[],"categories_segments":[],"categories_sizes":[],"default_left":[0,0,0,0,0,0,0,0,0,0,0,0,0,0,0,0,0,0,0,0,0,0,0,0,0,0,0],"id":10,"left_children":[1,3,5,7,9,11,-1,13,-1,15,17,19,-1,-1,-1,-1,-1,-1,21,23,25,-1,-1,-1,-1,-1,-1],"loss_changes":[3.537301E1,1.8369678E1,2.8203415E1,3.9455624E0,1.1740736E1,1.0942261E1,0E0,5.1137733E-1,0E0,3.548813E-2,1.7799009E0,4.19973E0,0E0,0E0,0E0,0E0,0E0,0E0,7.524449E-2,1.7866464E0,2.985958E0,0E0,0E0,0E0,0E0,0E0,0E0],"parents":[2147483647,0,0,1,1,2,2,3,3,4,4,5,5,7,7,9,9,10,10,11,11,18,18,19,19,20,20],"right_children":[2,4,6,8,10,12,-1,14,-1,16,18,20,-1,-1,-1,-1,-1,-1,22,24,26,-1,-1,-1,-1,-1,-1],"split_conditions":[4.7701705E-1,4.221128E2,-4.545057E0,4.1837845E0,5.4681444E-1,2.193772E0,-1.6350862E-1,-3.159926E1,2.3523857E-1,3.81261E1,2.3915716E-1,6.146694E-1,-1.4792347E-1,1.8383976E-2,-1.697562E-1,9.974828E-2,2.9125008E-1,-1.5679877E-1,-2.4098215E1,-1.1010206E1,1.4298137E2,1.8299485E-2,1.3661909E-1,1.9257593E-1,-1.2992753E-1,2.9685E-1,-9.804364E-2],"split_indices":[173,186,141,10,181,136,0,18,0,130,160,135,0,0,0,0,0,0,22,132,129,0,0,0,0,0,0],"split_type":[0,0,0,0,0,0,0,0,0,0,0,0,0,0,0,0,0,0,0,0,0,0,0,0,0,0,0],"sum_hessian":[2.1863046E2,1.27359E2,9.1271454E1,9.992769E1,2.7431314E1,7.107241E1,2.0199047E1,9.852571E1,1.401974E0,1.5397638E1,1.2033675E1,6.5416954E1,5.6554503E0,1.1294777E0,9.739623E1,1.4531573E0,1.3944482E1,9.754586E0,2.2790887E0,4.573375E0,6.0843582E1,1.0756482E0,1.2034404E0,1.4896326E0,3.0837426E0,5.951497E1,1.3286119E0],"tree_param":{"num_deleted":"0","num_feature":"196","num_nodes":"27","size_leaf_vector":"1"}},{"base_weights":[-4.3167775E-3,-5.2592E-1,6.943801E-1,2.6042318E-1,-1.6983771E-1,-1.5693064E-1,8.544081E-1,-1.3535075E-1,9.149969E-1,2.5851744E-1,9.566907E-1,2.1752486E-1,-1.2335425E-1,2.9094136E-1,1.3480299E-2],"categories":[],"categories_nodes":[],"categories_segments":[],"categories_sizes":[],"default_left":[0,0,0,0,0,0,0,0,0,0,0,0,0,0,0],"id":11,"left_children":[1,3,5,-1,-1,-1,7,-1,9,11,13,-1,-1,-1,-1],"loss_changes":[8.03742E1,7.568344E0,1.8813679E1,0E0,0E0,0E0,7.033634E0,0E0,1.9510269E0,2.2249596E0,8.5494995E-1,0E0,0E0,0E0,0E0],"parents":[2147483647,0,0,1,1,2,2,6,6,8,8,9,9,10,10],"right_children":[2,4,6,-1,-1,-1,8,-1,10,12,14,-1,-1,-1,-1],"split_conditions":[-3.2442133E0,3.206418E-1,2.5585546E0,2.6042318E-1,-1.6983771E-1,-1.5693064E-1,-5.843113E0,-1.3535075E-1,-5.165062E1,-4.9029493E0,7.265211E-1,2.1752486E-1,-1.2335425E-1,2.9094136E-1,1.3480299E-2],"split_indices":[141,176,135,0,0,0,3,0,101,7,176,0,0,0,0],"split_type":[0,0,0,0,0,0,0,0,0,0,0,0,0,0,0],"sum_hessian":[2.1853807E2,1.2526808E2,9.326999E1,2.9344664E0,1.2233361E2,1.0571777E1,8.269821E1,3.3817337E0,7.931648E1,5.16665E0,7.414983E1,2.9964101E0,2.17024E0,7.30357E1,1.114136E0],"tree_param":{"num_deleted":"0","num_feature":"196","num_nodes":"15","size_leaf_vector":"1"}},{"base_weights":[-2.1890363E-4,-3.4809303E-1,8.6604017E-1,3.585322E-1,-5.064366E-1,9.1232413E-1,-1.16173364E-1,-1.5256785E-1,6.9064724E-1,2.2029905E-1,-5.4513156E-1,-1.053905E-1,2.8494045E-1,1.3279808E-1,9.4324243E-1,-2.4287589E-1,-1.6980766E-1,2.1760014E-1,-1.3637766E-1,2.9667062E-1,8.88868E-2,4.1295218E-1,-1.499553E-1,2.7168663E-2,1.6604134E-1],"categories":[],"categories_nodes":[],"categories_segments":[],"categories_sizes":[],"default_left":[0,0,0,0,0,0,0,0,0,0,0,0,0,0,0,0,0,0,0,0,0,0,0,0,0],"id":12,"left_children":[1,3,5,7,9,11,-1,-1,13,-1,15,-1,-1,17,19,21,-1,-1,-1,-1,-1,23,-1,-1,-1],"loss_changes":[6.662393E1,1.7830976E1,4.0277863E0,8.835454E0,6.6071243E0,3.240818E0,0E0,0E0,2.936223E0,0E0,6.578865E-1,0E0,0E0,3.091668E0,1.4391994E-1,1.8739698E0,0E0,0E0,0E0,0E0,0E0,1.0087514E-1,0E0,0E0,0E0],"parents":[2147483647,0,0,1,1,2,2,3,3,4,4,5,5,8,8,10,10,13,13,14,14,15,15,21,21],"right_children":[2,4,6,8,10,12,-1,-1,14,-1,16,-1,-1,18,20,22,-1,-1,-1,-1,-1,24,-1,-1,-1],"split_conditions":[5.2776533E-1,-4.9610134E1,-4.025742E0,1.1487227E2,-4.645014E0,1.2609064E1,-1.16173364E-1,-1.5256785E-1,5.4442567E-1,2.2029905E-1,-7.0282135E0,-1.053905E-1,2.8494045E-1,-3.7600021E0,-4.9644005E1,-3.2103207E0,-1.6980766E-1,2.1760014E-1,-1.3637766E-1,2.9667062E-1,8.88868E-2,-3.8992918E-1,-1.499553E-1,2.7168663E-2,1.6604134E-1],"split_indices":[147,107,142,129,154,191,0,0,177,0,140,0,0,139,88,142,0,0,0,0,0,10,0,0,0],"split_type":[0,0,0,0,0,0,0,0,0,0,0,0,0,0,0,0,0,0,0,0,0,0,0,0,0],"sum_hessian":[2.1908517E2,1.5673955E2,6.234563E1,2.846173E1,1.2827782E2,6.038756E1,1.9580675E0,7.7352176E0,2.0726511E1,3.335838E0,1.2494198E2,1.4982241E0,5.888934E1,6.9354672E0,1.3791044E1,8.894622E0,1.16047356E2,3.335703E0,3.599764E0,1.2388181E1,1.4028636E0,2.3331635E0,6.561458E0,1.2074404E0,1.1257231E0],"tree_param":{"num_deleted":"0","num_feature":"196","num_nodes":"25","size_leaf_vector":"1"}},{"base_weights":[7.536561E-3,-3.3325446E-1,3.493943E-1,4.1619563E-1,-4.4266117E-1,6.5549403E-1,-1.6502756E-1,2.9135072E-1,-1.4624183E-1,-4.9886054E-1,3.767679E-1,-4.3994567E-1,7.959007E-1,1.9709486E-1,-5.268708E-1,-1.21334545E-1,2.688842E-1,2.491902E-2,-1.546239E-1,2.575628E-1,9.2930174E-1,-5.454715E-1,5.635736E-2,-1.4643557E-1,6.7781913E-1,9.6746457E-1,-1.0802017E-1,-7.136741E-3,-1.6953462E-1,2.654635E-1,-3.7135124E-2,5.5409137E-2,2.9668957E-1],"categories":[],"categories_nodes":[],"categories_segments":[],"categories_sizes":[],"default_left":[0,0,0,0,0,0,0,0,0,0,0,0,0,0,0,0,0,0,0,0,0,0,0,0,0,0,0,0,0,0,0,0,0],"id":13,"left_children":[1,3,5,7,9,11,-1,-1,-1,13,15,17,19,-1,21,-1,-1,-1,-1,23,25,27,-1,-1,29,31,-1,-1,-1,-1,-1,-1,-1],"loss_changes":[2.5836039E1,9.291152E0,3.0839424E1,7.827503E0,4.673504E0,1.3123543E1,0E0,0E0,0E0,3.3111515E0,3.1309054E0,4.4064128E-1,5.0727158E0,0E0,1.2985706E0,0E0,0E0,0E0,0E0,5.3677583E0,3.2463837E0,8.877945E-1,0E0,0E0,1.88521E0,7.846298E-1,0E0,0E0,0E0,0E0,0E0,0E0,0E0],"parents":[2147483647,0,0,1,1,2,2,3,3,4,4,5,5,9,9,10,10,11,11,12,12,14,14,19,19,20,20,21,21,24,24,25,25],"right_children":[2,4,6,8,10,12,-1,-1,-1,14,16,18,20,-1,22,-1,-1,-1,-1,24,26,28,-1,-1,30,32,-1,-1,-1,-1,-1,-1,-1],"split_conditions":[5.522001E-1,-2.5446527E0,7.818261E0,-2.1476032E1,1.5816147E2,-1.4370302E1,-1.6502756E-1,2.9135072E-1,-1.4624183E-1,-2.276778E1,4.859912E0,-9.036309E-1,4.3599516E-2,1.9709486E-1,2.3926273E1,-1.21334545E-1,2.688842E-1,2.491902E-2,-1.546239E-1,-1.0509191E1,1.3123341E-1,2.5186446E0,5.635736E-2,-1.4643557E-1,-3.8459324E1,-5.005089E1,-1.0802017E-1,-7.136741E-3,-1.6953462E-1,2.654635E-1,-3.7135124E-2,5.5409137E-2,2.9668957E-1],"split_indices":[175,143,134,15,129,11,0,0,0,2,6,155,160,0,193,0,0,0,0,12,194,132,0,0,75,96,0,0,0,0,0,0,0],"split_type":[0,0,0,0,0,0,0,0,0,0,0,0,0,0,0,0,0,0,0,0,0,0,0,0,0,0,0,0,0,0,0,0,0],"sum_hessian":[2.1976524E2,1.1006693E2,1.0969832E2,1.3663828E1,9.64031E1,8.2048164E1,2.7650156E1,8.418838E0,5.24499E0,9.058188E1,5.8212223E0,9.079257E0,7.296891E1,1.6118948E0,8.8969986E1,2.4134645E0,3.4077578E0,1.1321932E0,7.9470634E0,1.5072961E1,5.7895947E1,8.694409E1,2.025891E0,5.3747687E0,9.698192E0,5.6474083E1,1.4218632E0,3.235304E0,8.370879E1,7.6247773E0,2.0734146E0,1.7661093E0,5.4707973E1],"tree_param":{"num_deleted":"0","num_feature":"196","num_nodes":"33","size_leaf_vector":"1"}},{"base_weights":[-8.866864E-3,-5.3354275E-1,8.2267576E-1,-5.533555E-1,4.347654E-1,9.220401E-1,-1.4695004E-1,6.46574E-2,-1.7014194E-1,3.2516815E-2,1.6869122E-1,-8.972733E-2,9.4178736E-1,2.852511E-1,7.9611935E-2],"categories":[],"categories_nodes":[],"categories_segments":[],"categories_sizes":[],"default_left":[0,0,0,0,0,0,0,0,0,0,0,0,0,0,0],"id":14,"left_children":[1,3,5,7,9,11,-1,-1,-1,-1,-1,-1,13,-1,-1],"loss_changes":[9.636749E1,2.8385506E0,1.1596397E1,1.5333366E0,7.538682E-2,2.2056885E0,0E0,0E0,0E0,0E0,0E0,0E0,2.297821E-1,0E0,0E0],"parents":[2147483647,0,0,1,1,2,2,3,3,4,4,5,5,12,12],"right_children":[2,4,6,8,10,12,-1,-1,-1,-1,-1,-1,14,-1,-1],"split_conditions":[1.9853798E0,1.5737294E1,-3.3304527E0,6.8178906E0,7.189658E-1,-4.9412003E1,-1.4695004E-1,6.46574E-2,-1.7014194E-1,3.2516815E-2,1.6869122E-1,-8.972733E-2,-1.9782415E1,2.852511E-1,7.9611935E-2],"split_indices":[137,190,6,189,176,56,0,0,0,0,0,0,18,0,0],"split_type":[0,0,0,0,0,0,0,0,0,0,0,0,0,0,0],"sum_hessian":[2.1887318E2,1.3441814E2,8.445503E1,1.3214288E2,2.2752628E0,7.878785E1,5.667186E0,2.0695338E0,1.3007335E2,1.1590548E0,1.116208E0,1.0287074E0,7.775914E1,7.633221E1,1.426931E0],"tree_param":{"num_deleted":"0","num_feature":"196","num_nodes":"15","size_leaf_vector":"1"}},{"base_weights":[5.921982E-3,-3.0855408E-1,4.0657696E-1,-5.0917304E-1,3.2943E-1,6.387976E-1,-1.5693548E-1,-5.3856313E-1,1.9147517E-1,6.782727E-1,-1.4813952E-1,7.3019123E-1,-1.40046E-1,2.4565993E-2,-1.6423504E-1,-1.11362346E-1,2.4396722E-1,7.661066E-1,-1.0559661E-1,7.9801446E-1,-9.8312154E-2,6.670484E-2,2.4305417E-1],"categories":[],"categories_nodes":[],"categories_segments":[],"categories_sizes":[],"default_left":[0,0,0,0,0,0,0,0,0,0,0,0,0,0,0,0,0,0,0,0,0,0,0],"id":15,"left_children":[1,3,5,7,9,11,-1,13,-1,15,-1,17,-1,-1,-1,-1,-1,19,-1,21,-1,-1,-1],"loss_changes":[2.3989136E1,1.3821952E1,1.8408688E1,3.093916E0,7.838392E0,7.1551666E0,0E0,4.8626137E-1,0E0,2.9606848E0,0E0,2.70578E0,0E0,0E0,0E0,0E0,0E0,2.3897858E0,0E0,2.3686981E-1,0E0,0E0,0E0],"parents":[2147483647,0,0,1,1,2,2,3,3,4,4,5,5,7,7,9,9,11,11,17,17,19,19],"right_children":[2,4,6,8,10,12,-1,14,-1,16,-1,18,-1,-1,-1,-1,-1,20,-1,22,-1,-1,-1],"split_conditions":[4.7701705E-1,4.221128E2,-4.545057E0,4.1837845E0,2.7727E1,2.193772E0,-1.5693548E-1,-2.0392565E1,1.9147517E-1,-1.2375971E1,-1.4813952E-1,1.4298137E2,-1.40046E-1,2.4565993E-2,-1.6423504E-1,-1.11362346E-1,2.4396722E-1,-5.341027E-1,-1.0559661E-1,1.2994491E1,-9.8312154E-2,6.670484E-2,2.4305417E-1],"split_indices":[173,186,141,10,131,136,0,1,0,4,0,129,0,0,0,0,0,139,0,191,0,0,0],"split_type":[0,0,0,0,0,0,0,0,0,0,0,0,0,0,0,0,0,0,0,0,0,0,0],"sum_hessian":[1.8839973E2,1.0568048E2,8.271925E1,8.055215E1,2.5128336E1,6.643733E1,1.6281921E1,7.905779E1,1.4943544E0,1.777308E1,7.3552537E0,6.167838E1,4.7589536E0,1.0003929E0,7.80574E1,1.8255544E0,1.5947527E1,5.9979836E1,1.6985422E0,5.854251E1,1.4373255E0,1.6105742E0,5.693194E1],"tree_param":{"num_deleted":"0","num_feature":"196","num_nodes":"23","size_leaf_vector":"1"}},{"base_weights":[-5.681157E-3,-5.045166E-1,5.812523E-1,2.1430272E-1,-1.6450092E-1,-1.4888954E-1,7.0421964E-1,-1.2790382E-1,7.5363255E-1,-1.4323998E-2,7.7312505E-1,3.2972586E-1,2.3824535E-1,1.8298715E-1,-9.484337E-2],"categories":[],"categories_nodes":[],"categories_segments":[],"categories_sizes":[],"default_left":[0,0,0,0,0,0,0,0,0,0,0,0,0,0,0],"id":16,"left_children":[1,3,5,-1,-1,-1,7,-1,9,-1,11,13,-1,-1,-1],"loss_changes":[5.5339794E1,5.84853E0,1.1856489E1,0E0,0E0,0E0,4.698902E0,0E0,1.215374E0,0E0,4.2531967E-1,1.1062984E0,0E0,0E0,0E0],"parents":[2147483647,0,0,1,1,2,2,6,6,8,8,10,10,11,11],"right_children":[2,4,6,-1,-1,-1,8,-1,10,-1,12,14,-1,-1,-1],"split_conditions":[-3.2442133E0,3.206418E-1,2.5585546E0,2.1430272E-1,-1.6450092E-1,-1.4888954E-1,-5.843113E0,-1.2790382E-1,-3.12828E-1,-1.4323998E-2,-4.9616875E1,-4.9029493E0,2.3824535E-1,1.8298715E-1,-9.484337E-2],"split_indices":[141,176,135,0,0,0,3,0,160,0,63,7,0,0,0],"split_type":[0,0,0,0,0,0,0,0,0,0,0,0,0,0,0],"sum_hessian":[1.8701129E2,1.0116849E2,8.5842804E1,2.9799025E0,9.818859E1,8.481781E0,7.736102E1,2.9201372E0,7.444089E1,1.7332643E0,7.270762E1,4.0469527E0,6.866067E1,2.8611548E0,1.185798E0],"tree_param":{"num_deleted":"0","num_feature":"196","num_nodes":"15","size_leaf_vector":"1"}},{"base_weights":[1.0731376E-3,-3.2589972E-1,7.0849675E-1,3.096908E-1,-4.8894647E-1,7.487394E-1,-1.1041839E-1,-1.4457498E-1,5.7291186E-1,1.6037478E-1,-5.2378017E-1,-9.900982E-2,7.8007E-1,1.2041626E-1,7.644073E-1,-2.0072882E-1,-1.6437495E-1,7.255981E-2,2.3645957E-1,-1.266005E-1,1.838487E-1,2.4169719E-1,6.30822E-2,3.5949367E-1,-1.4186716E-1,2.2154147E-2,1.4688589E-1],"categories":[],"categories_nodes":[],"categories_segments":[],"categories_sizes":[],"default_left":[0,0,0,0,0,0,0,0,0,0,0,0,0,0,0,0,0,0,0,0,0,0,0,0,0,0,0],"id":17,"left_children":[1,3,5,7,9,11,-1,-1,13,-1,15,-1,17,19,21,23,-1,-1,-1,-1,-1,-1,-1,25,-1,-1,-1],"loss_changes":[4.408205E1,1.3658456E1,2.885437E0,5.9481783E0,3.992094E0,2.2312737E0,0E0,0E0,1.7177014E0,0E0,6.790619E-1,0E0,5.8940887E-2,2.234426E0,1.6175938E-1,1.4832604E0,0E0,0E0,0E0,0E0,0E0,0E0,0E0,8.963862E-2,0E0,0E0,0E0],"parents":[2147483647,0,0,1,1,2,2,3,3,4,4,5,5,8,8,10,10,12,12,13,13,14,14,15,15,23,23],"right_children":[2,4,6,8,10,12,-1,-1,14,-1,16,-1,18,20,22,24,-1,-1,-1,-1,-1,-1,-1,26,-1,-1,-1],"split_conditions":[5.033204E-1,-4.9610134E1,4.9672947E0,1.1487227E2,-4.9637737E0,1.2609064E1,-1.1041839E-1,-1.4457498E-1,5.4442567E-1,1.6037478E-1,-7.0282135E0,-9.900982E-2,-2.2130243E1,-1.0654312E1,2.839769E-1,-3.701902E-1,-1.6437495E-1,7.255981E-2,2.3645957E-1,-1.266005E-1,1.838487E-1,2.4169719E-1,6.30822E-2,-1.3282366E1,-1.4186716E-1,2.2154147E-2,1.4688589E-1],"split_indices":[147,107,5,129,154,191,0,0,177,0,140,0,23,11,145,157,0,0,0,0,0,0,0,0,0,0,0],"split_type":[0,0,0,0,0,0,0,0,0,0,0,0,0,0,0,0,0,0,0,0,0,0,0,0,0,0,0],"sum_hessian":[1.8857877E2,1.2933783E2,5.9240936E1,2.62215E1,1.0311633E2,5.7399788E1,1.8411473E0,6.335964E0,1.9885536E1,2.9216578E0,1.0019468E2,1.3509247E0,5.6048862E1,6.397452E0,1.3488085E1,7.613168E0,9.2581505E1,1.2915015E0,5.4757362E1,3.1121976E0,3.285254E0,1.2131132E1,1.3569525E0,2.3843324E0,5.2288356E0,1.236822E0,1.1475105E0],"tree_param":{"num_deleted":"0","num_feature":"196","num_nodes":"27","size_leaf_vector":"1"}},{"base_weights":[8.543439E-3,1.9708295E-1,-4.9056798E-1,-2.0242168E-1,5.820672E-1,-1.6296333E-1,1.7387244E-1,5.75421E-1,-4.3745372E-1,-1.5151677E-1,7.465968E-1,-1.14906296E-1,7.3428077E-1,-1.6388819E-1,1.9724448E-1,8.159347E-1,-2.8731218E-1,-3.2439015E-3,2.3976296E-1,7.83731E-3,2.5042808E-1,-1.2075395E-1,1.8600985E-2],"categories":[],"categories_nodes":[],"categories_segments":[],"categories_sizes":[],"default_left":[0,0,0,0,0,0,0,0,0,0,0,0,0,0,0,0,0,0,0,0,0,0,0],"id":18,"left_children":[1,3,5,7,9,-1,-1,11,13,-1,15,-1,17,-1,-1,19,21,-1,-1,-1,-1,-1,-1],"loss_changes":[1.8108908E1,2.159544E1,3.2875261E0,1.2915786E1,1.3142992E1,0E0,0E0,2.7944078E0,6.766573E0,0E0,4.707386E0,0E0,7.102189E-1,0E0,0E0,8.5146713E-1,2.1252123E-1,0E0,0E0,0E0,0E0,0E0,0E0],"parents":[2147483647,0,0,1,1,2,2,3,3,4,4,7,7,8,8,10,10,12,12,15,15,16,16],"right_children":[2,4,6,8,10,-1,-1,12,14,-1,16,-1,18,-1,-1,20,22,-1,-1,-1,-1,-1,-1],"split_conditions":[7.818261E0,1.1872915E1,-2.2946333E1,2.9406738E0,5.354706E0,-1.6296333E-1,1.7387244E-1,2.434381E1,1.622705E2,-1.5151677E-1,4.1159434E0,-1.14906296E-1,4.6523264E-1,-1.6388819E-1,1.9724448E-1,4.2631057E-1,7.487171E1,-3.2439015E-3,2.3976296E-1,7.83731E-3,2.5042808E-1,-1.2075395E-1,1.8600985E-2],"split_indices":[134,190,30,132,132,0,0,131,129,0,3,0,182,0,0,175,130,0,0,0,0,0,0],"split_type":[0,0,0,0,0,0,0,0,0,0,0,0,0,0,0,0,0,0,0,0,0,0,0],"sum_hessian":[1.9041125E2,1.3864369E2,5.1767567E1,6.8271454E1,7.037223E1,4.9809692E1,1.9578748E0,1.5505958E1,5.27655E1,8.978363E0,6.139387E1,2.0040355E0,1.3501922E1,4.845044E1,4.3150625E0,5.7732906E1,3.660963E0,1.1490828E0,1.23528385E1,1.3996407E0,5.6333267E1,2.6385145E0,1.0224484E0],"tree_param":{"num_deleted":"0","num_feature":"196","num_nodes":"23","size_leaf_vector":"1"}},{"base_weights":[-1.0061491E-2,-5.1028085E-1,6.8213886E-1,-5.3302544E-1,3.7646112E-1,7.6037496E-1,-1.3853493E-1,5.750442E-2,-1.6475767E-1,1.5046912E-1,2.3413636E-2,-3.8590044E-2,2.3440124E-1],"categories":[],"categories_nodes":[],"categories_segments":[],"categories_sizes":[],"default_left":[0,0,0,0,0,0,0,0,0,0,0,0,0],"id":19,"left_children":[1,3,5,7,9,11,-1,-1,-1,-1,-1,-1,-1],"loss_changes":[6.5467384E1,2.4140892E0,7.4501953E0,1.3637695E0,8.519602E-2,1.491169E0,0E0,0E0,0E0,0E0,0E0,0E0,0E0],"parents":[2147483647,0,0,1,1,2,2,3,3,4,4,5,5],"right_children":[2,4,6,8,10,12,-1,-1,-1,-1,-1,-1,-1],"split_conditions":[1.9853798E0,1.5737294E1,-3.3304527E0,6.8178906E0,1.3294035E0,-7.9043145E0,-1.3853493E-1,5.750442E-2,-1.6475767E-1,1.5046912E-1,2.3413636E-2,-3.8590044E-2,2.3440124E-1],"split_indices":[137,190,6,189,138,141,0,0,0,0,0,0,0],"split_type":[0,0,0,0,0,0,0,0,0,0,0,0,0],"sum_hessian":[1.8706909E2,1.0874628E2,7.832281E1,1.0641566E2,2.3306243E0,7.3622826E1,4.699985E0,2.0852168E0,1.0433044E2,1.1625161E0,1.1681082E0,1.5776852E0,7.2045135E1],"tree_param":{"num_deleted":"0","num_feature":"196","num_nodes":"13","size_leaf_vector":"1"}},{"base_weights":[4.0373616E-3,-2.903554E-1,3.5758525E-1,-4.9018484E-1,2.908152E-1,5.532403E-1,-1.5100957E-1,-5.2255744E-1,1.6087556E-1,5.8370656E-1,-1.4041023E-1,6.3265693E-1,-1.3258249E-1,1.6245157E-2,-1.5983967E-1,-1.0203533E-1,2.0936847E-1,6.6482264E-1,-9.808152E-2,6.932146E-1,-9.058879E-2,5.7661425E-2,2.1144779E-1],"categories":[],"categories_nodes":[],"categories_segments":[],"categories_sizes":[],"default_left":[0,0,0,0,0,0,0,0,0,0,0,0,0,0,0,0,0,0,0,0,0,0,0],"id":20,"left_children":[1,3,5,7,9,11,-1,13,-1,15,-1,17,-1,-1,-1,-1,-1,19,-1,21,-1,-1,-1],"loss_changes":[1.6564398E1,1.0228445E1,1.2458015E1,2.4399958E0,5.3514953E0,4.973545E0,0E0,4.0400505E-1,0E0,2.0233698E0,0E0,1.9277573E0,0E0,0E0,0E0,0E0,0E0,1.6900806E0,0E0,1.7116928E-1,0E0,0E0,0E0],"parents":[2147483647,0,0,1,1,2,2,3,3,4,4,5,5,7,7,9,9,11,11,17,17,19,19],"right_children":[2,4,6,8,10,12,-1,14,-1,16,-1,18,-1,-1,-1,-1,-1,20,-1,22,-1,-1,-1],"split_conditions":[4.7701705E-1,4.221128E2,-4.545057E0,4.1837845E0,2.7727E1,2.193772E0,-1.5100957E-1,-1.7342361E1,1.6087556E-1,-1.2375971E1,-1.4041023E-1,1.4298137E2,-1.3258249E-1,1.6245157E-2,-1.5983967E-1,-1.0203533E-1,2.0936847E-1,1.8327187E1,-9.808152E-2,1.2994491E1,-9.058879E-2,5.7661425E-2,2.1144779E-1],"split_indices":[173,186,141,10,131,136,0,11,0,4,0,129,0,0,0,0,0,192,0,191,0,0,0],"split_type":[0,0,0,0,0,0,0,0,0,0,0,0,0,0,0,0,0,0,0,0,0,0,0],"sum_hessian":[1.5715013E2,8.584627E1,7.1303856E1,6.399784E1,2.1848433E1,5.8391518E1,1.2912338E1,6.251703E1,1.4808102E0,1.5930553E1,5.9178786E0,5.4413536E1,3.9779832E0,1.0160311E0,6.1501E1,1.5348114E0,1.4395741E1,5.2945965E1,1.4675684E0,5.171034E1,1.2356262E0,1.568886E0,5.0141453E1],"tree_param":{"num_deleted":"0","num_feature":"196","num_nodes":"23","size_leaf_vector":"1"}},{"base_weights":[-6.14878E-3,-4.867078E-1,5.1228154E-1,1.8361244E-1,-1.602825E-1,-1.4145403E-1,6.152812E-1,-1.1868601E-1,6.582246E-1,-1.2051641E-2,6.768331E-1,6.876801E-1,4.0845968E-2,4.5854036E-2,2.0876192E-1],"categories":[],"categories_nodes":[],"categories_segments":[],"categories_sizes":[],"default_left":[0,0,0,0,0,0,0,0,0,0,0,0,0,0,0],"id":21,"left_children":[1,3,5,-1,-1,-1,7,-1,9,-1,11,13,-1,-1,-1],"loss_changes":[3.9131844E1,4.586838E0,7.94701E0,0E0,0E0,0E0,3.2486782E0,0E0,8.90213E-1,0E0,2.8604698E-1,1.706562E-1,0E0,0E0,0E0],"parents":[2147483647,0,0,1,1,2,2,6,6,8,8,10,10,11,11],"right_children":[2,4,6,-1,-1,-1,8,-1,10,-1,12,14,-1,-1,-1],"split_conditions":[-3.2442133E0,3.206418E-1,2.5585546E0,1.8361244E-1,-1.602825E-1,-1.4145403E-1,-5.843113E0,-1.1868601E-1,-3.12828E-1,-1.2051641E-2,1.5529924E2,-2.423906E-1,4.0845968E-2,4.5854036E-2,2.0876192E-1],"split_indices":[141,176,135,0,0,0,3,0,160,0,129,162,0,0,0],"split_type":[0,0,0,0,0,0,0,0,0,0,0,0,0,0,0],"sum_hessian":[1.550692E2,8.050565E1,7.456354E1,2.8482087E0,7.765745E1,6.7275906E0,6.7835945E1,2.4296048E0,6.540634E1,1.6674201E0,6.3738922E1,6.221882E1,1.5201031E0,1.2352878E0,6.098353E1],"tree_param":{"num_deleted":"0","num_feature":"196","num_nodes":"15","size_leaf_vector":"1"}},{"base_weights":[2.7381866E-3,-3.2364172E-1,5.8077186E-1,2.9015726E-1,-4.7784746E-1,6.544293E-1,-2.1847735E-1,-1.3578647E-1,5.400296E-1,1.1586617E-1,-5.0823367E-1,-1.0055719E-1,2.0689563E-1,8.5546926E-2,-1.268227E-1,-9.590227E-2,6.4462376E-1,-5.268434E-1,-7.594774E-2,-1.3817454E-2,2.1433705E-1,2.008699E-2,-1.6069971E-1,1.3012655E-1,-1.13933966E-1],"categories":[],"categories_nodes":[],"categories_segments":[],"categories_sizes":[],"default_left":[0,0,0,0,0,0,0,0,0,0,0,0,0,0,0,0,0,0,0,0,0,0,0,0,0],"id":22,"left_children":[1,3,5,7,9,11,13,-1,15,-1,17,-1,-1,-1,-1,-1,19,21,23,-1,-1,-1,-1,-1,-1],"loss_changes":[3.0107924E1,9.793376E0,3.5333462E0,4.161168E0,2.346634E0,2.0779285E0,6.9759977E-1,0E0,1.6669974E0,0E0,5.9994125E-1,0E0,0E0,0E0,0E0,0E0,7.475295E-1,4.345169E-1,8.541358E-1,0E0,0E0,0E0,0E0,0E0,0E0],"parents":[2147483647,0,0,1,1,2,2,3,3,4,4,5,5,6,6,8,8,10,10,16,16,17,17,18,18],"right_children":[2,4,6,8,10,12,14,-1,16,-1,18,-1,-1,-1,-1,-1,20,22,24,-1,-1,-1,-1,-1,-1],"split_conditions":[4.1289702E-1,-4.9900238E1,-4.025742E0,-3.2199856E1,-4.9637737E0,1.2780336E1,-4.9440075E1,-1.3578647E-1,-1.515118E1,1.1586617E-1,1.3984163E1,-1.0055719E-1,2.0689563E-1,8.5546926E-2,-1.268227E-1,-9.590227E-2,4.8662022E-1,-5.118349E1,-3.618989E1,-1.3817454E-2,2.1433705E-1,2.008699E-2,-1.6069971E-1,1.3012655E-1,-1.13933966E-1],"split_indices":[147,95,142,20,154,191,101,0,1,0,5,0,0,0,0,0,176,111,34,0,0,0,0,0,0],"split_type":[0,0,0,0,0,0,0,0,0,0,0,0,0,0,0,0,0,0,0,0,0,0,0,0,0],"sum_hessian":[1.5759317E2,1.0100307E2,5.65901E1,2.0103132E1,8.089993E1,5.1980827E1,4.60927E0,4.856155E0,1.5246978E1,2.3504918E0,7.8549446E1,1.4938323E0,5.0486996E1,1.2157403E0,3.39353E0,1.4307452E0,1.3816233E1,7.509777E1,3.4516723E0,1.2999148E0,1.2516317E1,1.002948E0,7.4094826E1,1.1293993E0,2.322273E0],"tree_param":{"num_deleted":"0","num_feature":"196","num_nodes":"25","size_leaf_vector":"1"}},{"base_weights":[9.905312E-3,1.8054768E-1,-4.7197855E-1,-1.8416633E-1,5.100798E-1,-1.58398E-1,1.493402E-1,4.9285096E-1,-4.127894E-1,-1.4393292E-1,6.4624333E-1,-1.0651154E-1,6.3042164E-1,-1.5891016E-1,5.6034666E-1,7.046771E-1,-2.5708926E-1,2.0730245E-1,-1.1327105E-2,5.382486E-2,1.9220483E-1,2.1698181E-1,4.692102E-3,1.2890978E-2,-1.1089394E-1],"categories":[],"categories_nodes":[],"categories_segments":[],"categories_sizes":[],"default_left":[0,0,0,0,0,0,0,0,0,0,0,0,0,0,0,0,0,0,0,0,0,0,0,0,0],"id":23,"left_children":[1,3,5,7,9,-1,-1,11,13,-1,15,-1,17,-1,19,21,23,-1,-1,-1,-1,-1,-1,-1,-1],"loss_changes":[1.3283028E1,1.4426027E1,2.5578747E0,9.078361E0,8.789476E0,0E0,0E0,1.9653845E0,5.2353387E0,0E0,3.1229038E0,0E0,5.607214E-1,0E0,4.239583E-2,6.6280556E-1,1.5498754E-1,0E0,0E0,0E0,0E0,0E0,0E0,0E0,0E0],"parents":[2147483647,0,0,1,1,2,2,3,3,4,4,7,7,8,8,10,10,12,12,14,14,15,15,16,16],"right_children":[2,4,6,8,10,-1,-1,12,14,-1,16,-1,18,-1,20,22,24,-1,-1,-1,-1,-1,-1,-1,-1],"split_conditions":[7.818261E0,1.1872915E1,-2.2946333E1,2.9406738E0,5.354706E0,-1.58398E-1,1.493402E-1,2.434381E1,1.622705E2,-1.4393292E-1,4.1159434E0,-1.0651154E-1,-3.397089E1,-1.5891016E-1,-1.335242E-1,1.3148183E-1,-2.0506182E0,2.0730245E-1,-1.1327105E-2,5.382486E-2,1.9220483E-1,2.1698181E-1,4.692102E-3,1.2890978E-2,-1.1089394E-1],"split_indices":[134,190,30,132,132,0,0,131,129,0,3,0,107,0,145,194,143,0,0,0,0,0,0,0,0],"split_type":[0,0,0,0,0,0,0,0,0,0,0,0,0,0,0,0,0,0,0,0,0,0,0,0,0],"sum_hessian":[1.5949911E2,1.18250244E2,4.1248875E1,5.6338257E1,6.1911987E1,3.9427105E1,1.821769E0,1.3930471E1,4.2407787E1,7.18153E0,5.4730457E1,1.7240238E0,1.2206448E1,3.8266216E1,4.1415706E0,5.1611767E1,3.1186886E0,1.1160329E1,1.0461191E0,1.2844415E0,2.857129E0,5.02071E1,1.4046686E0,1.0193927E0,2.0992956E0],"tree_param":{"num_deleted":"0","num_feature":"196","num_nodes":"25","size_leaf_vector":"1"}},{"base_weights":[-1.0916395E-2,-5.2547085E-1,5.629397E-1,2.836628E-2,-1.6055368E-1,6.6392475E-1,-1.412651E-1,-1.0614768E-1,6.926699E-1,4.3226957E-2,2.1030347E-1],"categories":[],"categories_nodes":[],"categories_segments":[],"categories_sizes":[],"default_left":[0,0,0,0,0,0,0,0,0,0,0],"id":24,"left_children":[1,3,5,-1,-1,7,-1,-1,9,-1,-1],"loss_changes":[4.6358723E1,5.4878616E-1,8.0624695E0,0E0,0E0,2.2356472E0,0E0,0E0,2.0334435E-1,0E0,0E0],"parents":[2147483647,0,0,1,1,2,2,5,5,8,8],"right_children":[2,4,6,-1,-1,8,-1,-1,10,-1,-1],"split_conditions":[1.386311E0,8.828952E1,-3.3304527E0,2.836628E-2,-1.6055368E-1,-5.118161E0,-1.412651E-1,-1.0614768E-1,-5.19786E1,4.3226957E-2,2.1030347E-1],"split_indices":[137,129,6,0,0,142,0,0,73,0,0],"split_type":[0,0,0,0,0,0,0,0,0,0,0],"sum_hessian":[1.5499728E2,8.176558E1,7.32317E1,1.125772E0,8.063981E1,6.704087E1,6.190831E0,1.5308431E0,6.5510025E1,1.254915E0,6.425511E1],"tree_param":{"num_deleted":"0","num_feature":"196","num_nodes":"11","size_leaf_vector":"1"}},{"base_weights":[2.7599088E-3,1.8352607E-1,-5.0580734E-1,-3.7861788E-1,3.9422214E-1,-1.5509577E-1,-2.0347401E-2,-4.9223456E-1,3.6627424E-1,5.1121294E-1,-1.3254976E-1,-2.1179896E-2,-1.5239087E-1,5.7579475E-3,1.4479847E-1,5.6320333E-1,-1.18172035E-1,4.0494147E-1,-1.4163436E-1,6.023624E-1,-1.05476364E-1,1.581617E-1,-2.2393204E-2,1.8604222E-1,-3.191532E-2],"categories":[],"categories_nodes":[],"categories_segments":[],"categories_sizes":[],"default_left":[0,0,0,0,0,0,0,0,0,0,0,0,0,0,0,0,0,0,0,0,0,0,0,0,0],"id":25,"left_children":[1,3,5,7,9,-1,-1,11,13,15,17,-1,-1,-1,-1,19,-1,21,-1,23,-1,-1,-1,-1,-1],"loss_changes":[1.1966382E1,1.152212E1,1.3206291E-1,2.4389439E0,4.4022083E0,0E0,0E0,1.205945E-1,1.565724E-1,2.9397688E0,2.668922E0,0E0,0E0,0E0,0E0,2.1831398E0,0E0,3.7910932E-1,0E0,7.355671E-1,0E0,0E0,0E0,0E0,0E0],"parents":[2147483647,0,0,1,1,2,2,3,3,4,4,7,7,8,8,9,9,10,10,15,15,17,17,19,19],"right_children":[2,4,6,8,10,-1,-1,12,14,16,18,-1,-1,-1,-1,20,-1,22,-1,24,-1,-1,-1,-1,-1],"split_conditions":[1.7460356E0,-5.270612E0,7.64732E-1,-5.1472282E0,1.2832756E1,-1.5509577E-1,-2.0347401E-2,-4.9855587E-1,-2.4550299E1,1.4164757E2,-1.1570093E1,-2.1179896E-2,-1.5239087E-1,5.7579475E-3,1.4479847E-1,-5.341027E-1,-1.18172035E-1,-3.1064188E1,-1.4163436E-1,6.586008E-1,-1.05476364E-1,1.581617E-1,-2.2393204E-2,1.8604222E-1,-3.191532E-2],"split_indices":[136,139,179,13,190,0,0,146,29,129,2,0,0,0,0,139,0,35,0,175,0,0,0,0,0],"split_type":[0,0,0,0,0,0,0,0,0,0,0,0,0,0,0,0,0,0,0,0,0,0,0,0,0],"sum_hessian":[1.2815617E2,9.502089E1,3.3135284E1,2.568786E1,6.933303E1,3.2134735E1,1.0005468E0,2.258258E1,3.1052814E0,5.6757328E1,1.2575702E1,1.0098363E0,2.1572744E1,1.07234E0,2.0329413E0,5.4031498E1,2.725831E0,4.7943215E0,7.7813797E0,5.214105E1,1.8904479E0,3.7412448E0,1.0530769E0,5.09871E1,1.1539509E0],"tree_param":{"num_deleted":"0","num_feature":"196","num_nodes":"25","size_leaf_vector":"1"}},{"base_weights":[-5.8214827E-3,-4.7147164E-1,4.6428645E-1,1.6074859E-1,-1.5683064E-1,-1.3442028E-1,5.554123E-1,-1.09694876E-1,5.9480894E-1,1.3470206E-1,6.258257E-1,1.4004089E-1,-1.03051655E-1,1.9151586E-1,1.3901539E-2],"categories":[],"categories_nodes":[],"categories_segments":[],"categories_sizes":[],"default_left":[0,0,0,0,0,0,0,0,0,0,0,0,0,0,0],"id":26,"left_children":[1,3,5,-1,-1,-1,7,-1,9,11,13,-1,-1,-1,-1],"loss_changes":[2.8002188E1,3.6004314E0,5.5415754E0,0E0,0E0,0E0,2.3339672E0,0E0,7.193718E-1,9.2754614E-1,3.5242653E-1,0E0,0E0,0E0,0E0],"parents":[2147483647,0,0,1,1,2,2,6,6,8,8,9,9,10,10],"right_children":[2,4,6,-1,-1,-1,8,-1,10,12,14,-1,-1,-1,-1],"split_conditions":[-3.2442133E0,3.206418E-1,2.5585546E0,1.6074859E-1,-1.5683064E-1,-1.3442028E-1,-5.843113E0,-1.09694876E-1,-5.165062E1,-4.9029493E0,7.548748E-1,1.4004089E-1,-1.03051655E-1,1.9151586E-1,1.3901539E-2],"split_indices":[141,176,135,0,0,0,3,0,101,7,177,0,0,0,0],"split_type":[0,0,0,0,0,0,0,0,0,0,0,0,0,0,0],"sum_hessian":[1.25918915E2,6.325793E1,6.2660988E1,2.6076226E0,6.0650307E1,5.33453E0,5.7326458E1,2.011766E0,5.5314693E1,3.8308136E0,5.148388E1,2.2748482E0,1.5559654E0,5.0292152E1,1.1917279E0],"tree_param":{"num_deleted":"0","num_feature":"196","num_nodes":"15","size_leaf_vector":"1"}},{"base_weights":[3.5032309E-3,-3.4642252E-1,4.6459347E-1,-4.7828725E-1,1.1418901E-1,5.5535674E-1,-3.910462E-1,1.3351275E-1,-1.5649828E-1,5.446532E-1,-3.9637044E-1,5.877862E-1,-6.509974E-2,-1.929888E-2,-1.3305691E-1,2.3379082E-2,1.7673601E-1,-1.399559E-1,1.9699939E-2,6.1493015E-1,-8.712381E-2,6.2851965E-1,1.9357833E-3,1.9216877E-1,2.5776159E-2],"categories":[],"categories_nodes":[],"categories_segments":[],"categories_sizes":[],"default_left":[0,0,0,0,0,0,0,0,0,0,0,0,0,0,0,0,0,0,0,0,0,0,0,0,0],"id":27,"left_children":[1,3,5,7,9,11,13,-1,-1,15,17,19,-1,-1,-1,-1,-1,-1,-1,21,-1,23,-1,-1,-1],"loss_changes":[2.1122673E1,4.575676E0,4.6035833E0,2.5574026E0,4.034282E0,1.4169292E0,7.4400425E-2,0E0,0E0,1.58463E-1,3.0698693E-1,1.36269E0,0E0,0E0,0E0,0E0,0E0,0E0,0E0,3.9702606E-1,0E0,2.5492477E-1,0E0,0E0,0E0],"parents":[2147483647,0,0,1,1,2,2,3,3,4,4,5,5,6,6,9,9,10,10,11,11,19,19,21,21],"right_children":[2,4,6,8,10,12,14,-1,-1,16,18,20,-1,-1,-1,-1,-1,-1,-1,22,-1,24,-1,-1,-1],"split_conditions":[1.3973904E2,5.201184E-1,5.330093E-1,1.8571445E1,-7.2789984E0,-1.1781617E-1,-4.1405415E1,1.3351275E-1,-1.5649828E-1,-2.9037519E0,1.6727335E1,1.3022866E1,-6.509974E-2,-1.929888E-2,-1.3305691E-1,2.3379082E-2,1.7673601E-1,-1.399559E-1,1.9699939E-2,6.205385E-1,-8.712381E-2,4.183692E-1,1.9357833E-3,1.9216877E-1,2.5776159E-2],"split_indices":[129,183,173,131,141,155,59,0,0,139,191,4,0,0,0,0,0,0,0,175,0,153,0,0,0],"split_type":[0,0,0,0,0,0,0,0,0,0,0,0,0,0,0,0,0,0,0,0,0,0,0,0,0],"sum_hessian":[1.2891678E2,7.343497E1,5.5481804E1,5.706105E1,1.637392E1,5.04782E1,5.0036054E0,2.144689E0,5.491636E1,8.847563E0,7.526357E0,4.867348E1,1.8047193E0,1.0004909E0,4.003114E0,1.0090579E0,7.8385053E0,6.5258603E0,1.0004969E0,4.7504948E1,1.1685315E0,4.643495E1,1.0699984E0,4.5250088E1,1.1848639E0],"tree_param":{"num_deleted":"0","num_feature":"196","num_nodes":"25","size_leaf_vector":"1"}},{"base_weights":[1.1325369E-2,1.6874668E-1,-4.554729E-1,-1.9545962E-1,4.442671E-1,-1.5449224E-1,1.3066925E-1,5.3566426E-1,-3.9456788E-1,-3.5310012E-1,5.274503E-1,-2.570738E-2,1.9315352E-1,-1.540808E-1,-1.3651132E-2,3.6052058E-3,-1.2874271E-1,5.583333E-1,-9.693339E-2,-3.5895842E-1,1.5803549E-1,-6.254915E-2,5.9373283E-1,3.7733885E-3,-1.2965487E-1,9.579285E-2,-9.965366E-2,-3.2424115E-2,1.8434228E-1],"categories":[],"categories_nodes":[],"categories_segments":[],"categories_sizes":[],"default_left":[0,0,0,0,0,0,0,0,0,0,0,0,0,0,0,0,0,0,0,0,0,0,0,0,0,0,0,0,0],"id":28,"left_children":[1,3,5,7,9,-1,-1,11,13,15,17,-1,-1,-1,19,-1,-1,21,-1,23,-1,25,27,-1,-1,-1,-1,-1,-1],"loss_changes":[9.749738E0,1.003776E1,1.9986291E0,6.529748E0,3.9511423E0,0E0,0E0,7.081578E-1,1.5658832E0,1.7066538E-1,1.5411072E0,0E0,0E0,0E0,1.9221222E0,0E0,0E0,1.1438351E0,0E0,1.7576826E-1,0E0,4.7885558E-1,7.6122856E-1,0E0,0E0,0E0,0E0,0E0,0E0],"parents":[2147483647,0,0,1,1,2,2,3,3,4,4,7,7,8,8,9,9,10,10,14,14,17,17,19,19,21,21,22,22],"right_children":[2,4,6,8,10,-1,-1,12,14,16,18,-1,-1,-1,20,-1,-1,22,-1,24,-1,26,28,-1,-1,-1,-1,-1,-1],"split_conditions":[7.818261E0,5.522001E-1,-2.2946333E1,1.0850796E2,-1.4370302E1,-1.5449224E-1,1.3066925E-1,1.0953307E1,-1.0112553E0,-2.6640854E1,1.3123341E-1,-2.570738E-2,1.9315352E-1,-1.540808E-1,-3.1202474E-1,3.6052058E-3,-1.2874271E-1,-4.9685947E1,-9.693339E-2,-4.1875562E-1,1.5803549E-1,-1.9565817E1,4.147227E0,3.7733885E-3,-1.2965487E-1,9.579285E-2,-9.965366E-2,-3.2424115E-2,1.8434228E-1],"split_indices":[134,175,30,129,11,0,0,190,137,1,194,0,0,0,154,0,0,82,0,148,0,0,133,0,0,0,0,0,0],"split_type":[0,0,0,0,0,0,0,0,0,0,0,0,0,0,0,0,0,0,0,0,0,0,0,0,0,0,0,0,0],"sum_hessian":[1.3063245E2,9.816586E1,3.2466587E1,4.2403667E1,5.576219E1,3.0829895E1,1.6366928E0,8.714345E0,3.3689323E1,4.9611735E0,5.080102E1,1.3230517E0,7.391293E0,2.5402746E1,8.286575E0,1.0002809E0,3.960893E0,4.935265E1,1.4483691E0,5.2609386E0,3.0256362E0,2.6206894E0,4.673196E1,1.002507E0,4.258432E0,1.0083617E0,1.6123277E0,1.2205982E0,4.5511364E1],"tree_param":{"num_deleted":"0","num_feature":"196","num_nodes":"29","size_leaf_vector":"1"}},{"base_weights":[-1.2371543E-2,-5.1211643E-1,5.106703E-1,2.0010592E-2,-1.5720394E-1,6.0187024E-1,-1.3413416E-1,-9.587043E-2,6.287034E-1,3.3605866E-2,1.911854E-1],"categories":[],"categories_nodes":[],"categories_segments":[],"categories_sizes":[],"default_left":[0,0,0,0,0,0,0,0,0,0,0],"id":29,"left_children":[1,3,5,-1,-1,7,-1,-1,9,-1,-1],"loss_changes":[3.329562E1,4.8342705E-1,5.7067413E0,0E0,0E0,1.6168041E0,0E0,0E0,1.7682457E-1,0E0,0E0],"parents":[2147483647,0,0,1,1,2,2,5,5,8,8],"right_children":[2,4,6,-1,-1,8,-1,-1,10,-1,-1],"split_conditions":[1.386311E0,-2.7846035E-1,-3.3304527E0,2.0010592E-2,-1.5720394E-1,-5.118161E0,-1.3413416E-1,-9.587043E-2,-4.011292E1,3.3605866E-2,1.911854E-1],"split_indices":[137,152,6,0,0,142,0,0,29,0,0],"split_type":[0,0,0,0,0,0,0,0,0,0,0],"sum_hessian":[1.2537978E2,6.412852E1,6.1251263E1,1.1987305E0,6.292979E1,5.62653E1,4.985962E0,1.2834326E0,5.498187E1,1.1278383E0,5.385403E1],"tree_param":{"num_deleted":"0","num_feature":"196","num_nodes":"11","size_leaf_vector":"1"}},{"base_weights":[2.2612924E-3,1.7009327E-1,-4.9175063E-1,-3.5728812E-1,3.6023995E-1,-2.3401182E-2,-1.51512E-1,-4.7689155E-1,3.2775205E-1,5.510515E-1,5.9831027E-2,-2.4467923E-2,-1.4839712E-1,1.5350682E-2,1.3063125E-1,-1.759415E-2,5.839598E-1,-3.326994E-1,3.7488678E-1,1.7842944E-1,3.5947613E-2,7.2933815E-2,-1.4135364E-1,-1.0921719E-1,5.3003556E-1,5.2214637E-2,1.7014302E-1],"categories":[],"categories_nodes":[],"categories_segments":[],"categories_sizes":[],"default_left":[0,0,0,0,0,0,0,0,0,0,0,0,0,0,0,0,0,0,0,0,0,0,0,0,0,0,0],"id":30,"left_children":[1,3,5,7,9,-1,-1,11,13,15,17,-1,-1,-1,-1,-1,19,21,23,-1,-1,-1,-1,-1,25,-1,-1],"loss_changes":[8.788482E0,8.061798E0,1.0840702E-1,1.915102E0,3.3285475E0,0E0,0E0,9.08699E-2,9.0405315E-2,7.513771E-1,3.080586E0,0E0,0E0,0E0,0E0,0E0,9.925556E-2,1.0053847E0,1.7669868E0,0E0,0E0,0E0,0E0,0E0,5.6560516E-2,0E0,0E0],"parents":[2147483647,0,0,1,1,2,2,3,3,4,4,7,7,8,8,9,9,10,10,16,16,17,17,18,18,24,24],"right_children":[2,4,6,8,10,-1,-1,12,14,16,18,-1,-1,-1,-1,-1,20,22,24,-1,-1,-1,-1,-1,26,-1,-1],"split_conditions":[1.7460356E0,-5.270612E0,1.4987642E1,-5.1472282E0,-2.8951892E-1,-2.3401182E-2,-1.51512E-1,-2.6120283E1,4.26489E0,4.0025157E-1,7.1582034E-2,-2.4467923E-2,-1.4839712E-1,1.5350682E-2,1.3063125E-1,-1.759415E-2,-4.0542838E-1,4.9795082E-1,1.8571445E1,1.7842944E-1,3.5947613E-2,7.2933815E-2,-1.4135364E-1,-1.0921719E-1,-1.2812342E-1,5.2214637E-2,1.7014302E-1],"split_indices":[136,139,132,13,146,0,0,19,9,173,185,0,0,0,0,0,138,179,131,0,0,0,0,0,152,0,0],"split_type":[0,0,0,0,0,0,0,0,0,0,0,0,0,0,0,0,0,0,0,0,0,0,0,0,0,0,0],"sum_hessian":[1.03990166E2,7.8109505E1,2.5880657E1,2.046627E1,5.7643234E1,1.0191898E0,2.4861467E1,1.7682817E1,2.7834525E0,3.4741837E1,2.2901402E1,1.0009E0,1.6681917E1,1.1934143E0,1.5900382E0,1.7390972E0,3.300274E1,1.0172011E1,1.2729389E1,3.1976873E1,1.0258656E0,1.825558E0,8.346454E0,1.9752319E0,1.0754158E1,1.5523496E0,9.201808E0],"tree_param":{"num_deleted":"0","num_feature":"196","num_nodes":"27","size_leaf_vector":"1"}},{"base_weights":[-5.1405826E-3,-4.6582547E-1,4.2423505E-1,1.3624857E-1,-1.5392223E-1,-1.2935418E-1,5.1374036E-1,-1.01377115E-1,5.5131805E-1,-3.9093215E-2,5.689592E-1,1.4499189E-1,1.7893754E-1,1.2559243E-1,-8.9141265E-2],"categories":[],"categories_nodes":[],"categories_segments":[],"categories_sizes":[],"default_left":[0,0,0,0,0,0,0,0,0,0,0,0,0,0,0],"id":31,"left_children":[1,3,5,-1,-1,-1,7,-1,9,-1,11,13,-1,-1,-1],"loss_changes":[2.0369425E1,2.3921537E0,4.3028183E0,0E0,0E0,0E0,1.7452831E0,0E0,6.3971233E-1,0E0,4.5021915E-1,6.234879E-1,0E0,0E0,0E0],"parents":[2147483647,0,0,1,1,2,2,6,6,8,8,10,10,11,11],"right_children":[2,4,6,-1,-1,-1,8,-1,10,-1,12,14,-1,-1,-1],"split_conditions":[-3.3521667E0,3.0459562E-1,2.5585546E0,1.3624857E-1,-1.5392223E-1,-1.2935418E-1,-5.843113E0,-1.01377115E-1,2.6792294E-1,-3.9093215E-2,-5.165062E1,-5.856021E-2,1.7893754E-1,1.2559243E-1,-8.9141265E-2],"split_indices":[141,175,135,0,0,0,3,0,184,0,101,6,0,0,0],"split_type":[0,0,0,0,0,0,0,0,0,0,0,0,0,0,0],"sum_hessian":[1.0097729E2,4.8671677E1,5.230561E1,1.9568712E0,4.6714806E1,4.592928E0,4.771268E1,1.6784949E0,4.6034187E1,1.00022E0,4.5033966E1,3.125134E0,4.1908833E1,1.9631782E0,1.1619557E0],"tree_param":{"num_deleted":"0","num_feature":"196","num_nodes":"15","size_leaf_vector":"1"}},{"base_weights":[3.8670353E-3,-2.8781107E-1,4.8502517E-1,2.4643886E-1,-4.4489017E-1,5.490939E-1,-1.7970695E-1,-1.2112853E-1,4.4636053E-1,8.401465E-2,-4.7907904E-1,-8.494564E-2,1.7473963E-1,6.5667264E-2,-1.1177634E-1,5.396595E-1,-4.7308613E-2,-5.034187E-1,-2.3801047E-2,4.3304544E-2,1.7059283E-1,-6.5263995E-4,-1.5428618E-1,1.0760405E-1,-9.585346E-2],"categories":[],"categories_nodes":[],"categories_segments":[],"categories_sizes":[],"default_left":[0,0,0,0,0,0,0,0,0,0,0,0,0,0,0,0,0,0,0,0,0,0,0,0,0],"id":32,"left_children":[1,3,5,7,9,11,13,-1,15,-1,17,-1,-1,-1,-1,19,-1,21,23,-1,-1,-1,-1,-1,-1],"loss_changes":[1.4920367E1,5.6649146E0,1.8073702E0,2.2190413E0,1.4109125E0,1.1881123E0,4.1064513E-1,0E0,7.879379E-1,0E0,5.372305E-1,0E0,0E0,0E0,0E0,4.4276476E-2,0E0,2.5491238E-1,5.177946E-1,0E0,0E0,0E0,0E0,0E0,0E0],"parents":[2147483647,0,0,1,1,2,2,3,3,4,4,5,5,6,6,8,8,10,10,15,15,17,17,18,18],"right_children":[2,4,6,8,10,12,14,-1,16,-1,18,-1,-1,-1,-1,20,-1,22,24,-1,-1,-1,-1,-1,-1],"split_conditions":[4.1289702E-1,-4.9900238E1,-4.025742E0,-3.2199856E1,-4.9637737E0,1.2780336E1,1.12298794E-1,-1.2112853E-1,1.1244929E1,8.401465E-2,1.3984163E1,-8.494564E-2,1.7473963E-1,6.5667264E-2,-1.1177634E-1,-1.4142186E1,-4.7308613E-2,-5.0205643E1,-3.7341972E1,4.3304544E-2,1.7059283E-1,-6.5263995E-4,-1.5428618E-1,1.0760405E-1,-9.585346E-2],"split_indices":[147,95,142,20,154,191,148,0,189,0,5,0,0,0,0,1,0,87,37,0,0,0,0,0,0],"split_type":[0,0,0,0,0,0,0,0,0,0,0,0,0,0,0,0,0,0,0,0,0,0,0,0,0],"sum_hessian":[1.04318695E2,6.5197685E1,3.9121006E1,1.4684521E1,5.051317E1,3.5840557E1,3.28045E0,3.2135537E0,1.1470966E1,1.951092E0,4.8562073E1,1.0931777E0,3.474738E1,1.0257782E0,2.2546718E0,1.0028612E1,1.442355E0,4.5997272E1,2.5648003E0,1.0935637E0,8.935048E0,1.0016737E0,4.49956E1,1.0254751E0,1.5393252E0],"tree_param":{"num_deleted":"0","num_feature":"196","num_nodes":"25","size_leaf_vector":"1"}},{"base_weights":[1.25085E-2,1.5771905E-1,-4.40212E-1,-1.557157E-1,4.2426202E-1,-1.5098974E-1,1.1567869E-1,4.095157E-1,-3.7743506E-1,-1.3068178E-1,5.3546965E-1,-8.8590145E-2,5.2300876E-1,-1.5147583E-1,1.3223715E-1,5.873275E-1,-2.2114538E-1,1.2178283E-2,1.72149E-1,-8.688524E-4,1.8162663E-1,-6.523251E-3,-8.981936E-2],"categories":[],"categories_nodes":[],"categories_segments":[],"categories_sizes":[],"default_left":[0,0,0,0,0,0,0,0,0,0,0,0,0,0,0,0,0,0,0,0,0,0,0],"id":33,"left_children":[1,3,5,7,9,-1,-1,11,13,-1,15,-1,17,-1,-1,19,21,-1,-1,-1,-1,-1,-1],"loss_changes":[7.134892E0,6.925955E0,1.5676236E0,4.975452E0,4.50224E0,0E0,0E0,1.0597686E0,3.1589227E0,0E0,1.6985378E0,0E0,2.2454453E-1,0E0,0E0,4.042635E-1,4.4839367E-2,0E0,0E0,0E0,0E0,0E0,0E0],"parents":[2147483647,0,0,1,1,2,2,3,3,4,4,7,7,8,8,10,10,12,12,15,15,16,16],"right_children":[2,4,6,8,10,-1,-1,12,14,-1,16,-1,18,-1,-1,20,22,-1,-1,-1,-1,-1,-1],"split_conditions":[7.818261E0,1.1872915E1,-2.2946333E1,2.9406738E0,5.354706E0,-1.5098974E-1,1.1567869E-1,2.434381E1,1.622705E2,-1.3068178E-1,4.1159434E0,-8.8590145E-2,-7.0853252E0,-1.5147583E-1,1.3223715E-1,4.2631057E-1,-1.9425304E-1,1.2178283E-2,1.72149E-1,-8.688524E-4,1.8162663E-1,-6.523251E-3,-8.981936E-2],"split_indices":[134,190,30,132,132,0,0,131,129,0,3,0,140,0,0,175,159,0,0,0,0,0,0],"split_type":[0,0,0,0,0,0,0,0,0,0,0,0,0,0,0,0,0,0,0,0,0,0,0],"sum_hessian":[1.0647619E2,8.111129E1,2.5364904E1,3.746777E1,4.3643517E1,2.3927513E1,1.4373913E0,1.0317714E1,2.7150055E1,4.6639977E0,3.897952E1,1.2088113E0,9.108903E0,2.3821442E1,3.3286119E0,3.6688652E1,2.2908697E0,1.0395794E0,8.069324E0,1.1162978E0,3.5572353E1,1.0057956E0,1.2850741E0],"tree_param":{"num_deleted":"0","num_feature":"196","num_nodes":"23","size_leaf_vector":"1"}},{"base_weights":[-1.4500039E-2,-5.001506E-1,4.728825E-1,2.6077166E-2,-1.5424278E-1,5.583339E-1,-1.269712E-1,-8.667198E-2,5.846598E-1,1.7823274E-1,2.5003042E-2],"categories":[],"categories_nodes":[],"categories_segments":[],"categories_sizes":[],"default_left":[0,0,0,0,0,0,0,0,0,0,0],"id":34,"left_children":[1,3,5,-1,-1,7,-1,-1,9,-1,-1],"loss_changes":[2.4148308E1,4.6433735E-1,4.136668E0,0E0,0E0,1.2157097E0,0E0,0E0,1.6767311E-1,0E0,0E0],"parents":[2147483647,0,0,1,1,2,2,5,5,8,8],"right_children":[2,4,6,-1,-1,8,-1,-1,10,-1,-1],"split_conditions":[1.386311E0,6.8178906E0,-3.3304527E0,2.6077166E-2,-1.5424278E-1,-5.118161E0,-1.269712E-1,-8.667198E-2,6.993976E-1,1.7823274E-1,2.5003042E-2],"split_indices":[137,189,6,0,0,142,0,0,183,0,0],"split_type":[0,0,0,0,0,0,0,0,0,0,0],"sum_hessian":[1.0002254E2,5.0087166E1,4.993537E1,1.0446174E0,4.9042545E1,4.5932343E1,4.003032E0,1.0836402E0,4.48487E1,4.383732E1,1.0113838E0],"tree_param":{"num_deleted":"0","num_feature":"196","num_nodes":"11","size_leaf_vector":"1"}},{"base_weights":[2.6434092E-3,1.6445948E-1,-4.674907E-1,-3.491194E-1,3.4489092E-1,-1.4848287E-1,1.3963254E-2,-4.612394E-1,2.7528012E-1,4.086994E-1,-1.19697474E-1,-2.8131742E-2,-1.4432625E-1,1.5706688E-2,1.08381085E-1,5.059839E-1,6.385043E-2,5.479973E-1,-4.8772577E-2,3.8815337E-1,-2.8472286E-1,1.6827157E-1,6.1760068E-2,-9.031118E-2,8.09302E-2,4.8289746E-3,1.3799685E-1,-1.2223322E-1,1.7079169E-2],"categories":[],"categories_nodes":[],"categories_segments":[],"categories_sizes":[],"default_left":[0,0,0,0,0,0,0,0,0,0,0,0,0,0,0,0,0,0,0,0,0,0,0,0,0,0,0,0,0],"id":35,"left_children":[1,3,5,7,9,-1,-1,11,13,15,-1,-1,-1,-1,-1,17,19,21,23,25,27,-1,-1,-1,-1,-1,-1,-1,-1],"loss_changes":[6.4974113E0,6.0071173E0,3.316636E-1,1.3179934E0,2.4183426E0,0E0,0E0,6.2806845E-2,4.273559E-2,1.4523425E0,0E0,0E0,0E0,0E0,0E0,8.278446E-1,1.3406291E0,2.5996208E-2,3.4944868E-1,1.5456963E-1,2.6728043E-1,0E0,0E0,0E0,0E0,0E0,0E0,0E0,0E0],"parents":[2147483647,0,0,1,1,2,2,3,3,4,4,7,7,8,8,9,9,15,15,16,16,17,17,18,18,19,19,20,20],"right_children":[2,4,6,8,10,-1,-1,12,14,16,-1,-1,-1,-1,-1,18,20,22,24,26,28,-1,-1,-1,-1,-1,-1,-1,-1],"split_conditions":[1.5846578E0,-5.270612E0,3.5060045E-1,-4.5534935E1,2.3210527E1,-1.4848287E-1,1.3963254E-2,-1.455974E1,-4.4449377E0,-3.1202474E-1,-1.19697474E-1,-2.8131742E-2,-1.4432625E-1,1.5706688E-2,1.08381085E-1,1.3602698E2,-3.3067325E-1,-5.359707E0,1.8699331E0,4.7422218E-1,-5.949319E-1,1.6827157E-1,6.1760068E-2,-9.031118E-2,8.09302E-2,4.8289746E-3,1.3799685E-1,-1.2223322E-1,1.7079169E-2],"split_indices":[136,139,158,121,193,0,0,3,3,154,0,0,0,0,0,129,146,141,3,184,144,0,0,0,0,0,0,0,0],"split_type":[0,0,0,0,0,0,0,0,0,0,0,0,0,0,0,0,0,0,0,0,0,0,0,0,0,0,0,0,0],"sum_hessian":[8.339706E1,6.252625E1,2.0870806E1,1.601275E1,4.65135E1,1.9847961E1,1.0228444E0,1.3796665E1,2.2160842E0,4.3253872E1,3.2596269E0,1.0003694E0,1.2796296E1,1.0647187E0,1.1513655E0,3.337209E1,9.881783E0,3.1033978E1,2.338113E0,5.0602846E0,4.8214974E0,2.9289492E1,1.7444857E0,1.3354571E0,1.0026561E0,1.0170107E0,4.043274E0,3.405635E0,1.4158624E0],"tree_param":{"num_deleted":"0","num_feature":"196","num_nodes":"29","size_leaf_vector":"1"}},{"base_weights":[-5.776408E-3,-4.5128292E-1,3.9943737E-1,1.1771946E-1,-1.5154424E-1,-1.2347942E-1,4.882733E-1,5.173756E-1,-8.343463E-2,-4.049587E-2,5.447114E-1,1.2204881E-2,1.6829842E-1],"categories":[],"categories_nodes":[],"categories_segments":[],"categories_sizes":[],"default_left":[0,0,0,0,0,0,0,0,0,0,0,0,0],"id":36,"left_children":[1,3,5,-1,-1,-1,7,9,-1,-1,11,-1,-1],"loss_changes":[1.4810537E1,1.9738126E0,3.296999E0,0E0,0E0,0E0,1.017889E0,7.5300217E-1,0E0,0E0,2.7894592E-1,0E0,0E0],"parents":[2147483647,0,0,1,1,2,2,6,6,7,7,10,10],"right_children":[2,4,6,-1,-1,-1,8,10,-1,-1,12,-1,-1],"split_conditions":[-2.4112463E0,3.5707545E-1,2.5585546E0,1.1771946E-1,-1.5154424E-1,-1.2347942E-1,1.5568712E2,-4.1638074E0,-8.343463E-2,-4.049587E-2,1.6243984E1,1.2204881E-2,1.6829842E-1],"split_indices":[142,175,135,0,0,0,129,3,0,0,193,0,0],"split_type":[0,0,0,0,0,0,0,0,0,0,0,0,0],"sum_hessian":[8.004278E1,3.80717E1,4.1971077E1,1.9076251E0,3.6164074E1,3.7847378E0,3.818634E1,3.710236E1,1.0839812E0,1.3337883E0,3.576857E1,1.2288738E0,3.4539696E1],"tree_param":{"num_deleted":"0","num_feature":"196","num_nodes":"13","size_leaf_vector":"1"}},{"base_weights":[5.0233584E-3,-3.1758553E-1,3.9701906E-1,-4.6180278E-1,8.09786E-2,5.187765E-1,-1.2427389E-1,1.00095175E-1,-1.5081029E-1,4.402799E-1,-3.6224693E-1,5.434259E-1,-8.851446E-3,2.278534E-1,-1.2696575E-1,4.037763E-2,1.5465488E-1,1.255956E-3,-1.2889881E-1,1.6750707E-1,1.697894E-2,1.3428952E-1,-5.3327315E-2],"categories":[],"categories_nodes":[],"categories_segments":[],"categories_sizes":[],"default_left":[0,0,0,0,0,0,0,0,0,0,0,0,0,0,0,0,0,0,0,0,0,0,0],"id":37,"left_children":[1,3,5,7,9,11,13,-1,-1,15,17,19,-1,21,-1,-1,-1,-1,-1,-1,-1,-1,-1],"loss_changes":[1.0836292E1,2.739698E0,2.519444E0,1.2956591E0,2.2842555E0,4.4240284E-1,9.52279E-1,0E0,0E0,1.104691E-1,1.629166E-1,1.882267E-1,0E0,4.703005E-1,0E0,0E0,0E0,0E0,0E0,0E0,0E0,0E0,0E0],"parents":[2147483647,0,0,1,1,2,2,3,3,4,4,5,5,6,6,9,9,10,10,11,11,13,13],"right_children":[2,4,6,8,10,12,14,-1,-1,16,18,20,-1,22,-1,-1,-1,-1,-1,-1,-1,-1,-1],"split_conditions":[1.3973904E2,5.091333E-1,6.2734284E0,1.8571445E1,-7.2789984E0,-2.4435809E-1,8.459102E-2,1.00095175E-1,-1.5081029E-1,6.136622E1,4.914202E-2,4.805877E-1,-8.851446E-3,-6.079686E0,-1.2696575E-1,4.037763E-2,1.5465488E-1,1.255956E-3,-1.2889881E-1,1.6750707E-1,1.697894E-2,1.3428952E-1,-5.3327315E-2],"split_indices":[129,183,5,131,141,155,194,0,0,130,185,174,0,140,0,0,0,0,0,0,0,0,0],"split_type":[0,0,0,0,0,0,0,0,0,0,0,0,0,0,0,0,0,0,0,0,0,0,0],"sum_hessian":[8.369156E1,4.6013058E1,3.76785E1,3.367086E1,1.23422E1,3.0548235E1,7.1302676E0,1.2964916E0,3.2374367E1,6.820113E0,5.522087E0,2.924242E1,1.3058143E0,3.3831122E0,3.7471554E0,1.8978809E0,4.922232E0,1.0038168E0,4.51827E0,2.8229694E1,1.0127258E0,2.1270063E0,1.2561059E0],"tree_param":{"num_deleted":"0","num_feature":"196","num_nodes":"23","size_leaf_vector":"1"}},{"base_weights":[1.3494865E-2,1.4950381E-1,-4.2517918E-1,-1.6545716E-1,3.8604873E-1,-1.4764102E-1,1.0327579E-1,4.3899947E-1,-3.5923076E-1,-2.9959625E-1,4.5699418E-1,-2.3554854E-2,1.6001178E-1,-1.4693083E-1,2.1773444E-3,-1.0795451E-1,-1.602516E-2,-7.900436E-2,4.9281913E-1,-3.061788E-1,1.2139706E-1,-4.5424193E-2,1.0211806E-2,5.1787424E-1,-1.2176925E-2,-1.1262889E-1,-9.053729E-3,4.9808826E-2,1.674483E-1],"categories":[],"categories_nodes":[],"categories_segments":[],"categories_sizes":[],"default_left":[0,0,0,0,0,0,0,0,0,0,0,0,0,0,0,0,0,0,0,0,0,0,0,0,0,0,0,0,0],"id":38,"left_children":[1,3,5,7,9,-1,-1,11,13,15,17,-1,-1,-1,19,-1,-1,21,23,25,-1,-1,-1,27,-1,-1,-1,-1,-1],"loss_changes":[5.221542E0,5.035471E0,1.2369146E0,3.5920358E0,2.0052776E0,0E0,0E0,4.114908E-1,1.0745189E0,4.3159723E-2,7.1492195E-1,0E0,0E0,0E0,9.9676806E-1,0E0,0E0,3.0261815E-2,4.6387482E-1,7.5663924E-2,0E0,0E0,0E0,3.569851E-1,0E0,0E0,0E0,0E0,0E0],"parents":[2147483647,0,0,1,1,2,2,3,3,4,4,7,7,8,8,9,9,10,10,14,14,17,17,18,18,19,19,23,23],"right_children":[2,4,6,8,10,-1,-1,12,14,16,18,-1,-1,-1,20,-1,-1,22,24,26,-1,-1,-1,28,-1,-1,-1,-1,-1],"split_conditions":[7.818261E0,5.527822E-1,-2.2946333E1,1.0850796E2,-1.4370302E1,-1.4764102E-1,1.0327579E-1,1.0953307E1,-1.0112553E0,6.979774E-1,-5.3081864E-1,-2.3554854E-2,1.6001178E-1,-1.4693083E-1,-3.1202474E-1,-1.0795451E-1,-1.602516E-2,-7.1930327E0,3.1778865E-2,6.266288E-2,1.2139706E-1,-4.5424193E-2,1.0211806E-2,1.2731922E-2,-1.2176925E-2,-1.1262889E-1,-9.053729E-3,4.9808826E-2,1.674483E-1],"split_indices":[134,175,30,129,11,0,0,190,137,178,146,0,0,0,154,0,0,141,144,159,0,0,0,160,0,0,0,0,0],"split_type":[0,0,0,0,0,0,0,0,0,0,0,0,0,0,0,0,0,0,0,0,0,0,0,0,0,0,0,0,0],"sum_hessian":[8.545098E1,6.5730675E1,1.9720312E1,2.8321264E1,3.7409405E1,1.8473131E1,1.2471803E0,6.567889E0,2.1753376E1,3.2056653E0,3.420374E1,1.0388966E0,5.5289927E0,1.5720167E1,6.0332084E0,2.204405E0,1.0012605E0,2.0673664E0,3.2136375E1,3.5515149E0,2.4816935E0,1.0532705E0,1.0140959E0,3.0722414E1,1.41396E0,2.5511537E0,1.0003612E0,3.6824932E0,2.703992E1],"tree_param":{"num_deleted":"0","num_feature":"196","num_nodes":"29","size_leaf_vector":"1"}},{"base_weights":[-1.6852366E-2,-1.5172881E-1,4.3079868E-1,5.164014E-1,-1.2309731E-1,5.494529E-1,-5.710361E-2,1.6901132E-1,1.5446922E-2],"categories":[],"categories_nodes":[],"categories_segments":[],"categories_sizes":[],"default_left":[0,0,0,0,0,0,0,0,0],"id":39,"left_children":[1,-1,3,5,-1,7,-1,-1,-1],"loss_changes":[1.7711857E1,0E0,3.255188E0,1.0110369E0,0E0,2.2970867E-1,0E0,0E0,0E0],"parents":[2147483647,0,0,2,2,3,3,5,5],"right_children":[2,-1,4,6,-1,8,-1,-1,-1],"split_conditions":[1.1490402E0,-1.5172881E-1,1.297761E2,4.1436295E1,-1.2309731E-1,-3.226452E1,-5.710361E-2,1.6901132E-1,1.5446922E-2],"split_indices":[137,0,129,131,0,34,0,0,0],"split_type":[0,0,0,0,0,0,0,0,0],"sum_hessian":[7.893182E1,3.766523E1,4.126659E1,3.7805145E1,3.461446E0,3.6328766E1,1.4763782E0,3.5213196E1,1.1155684E0],"tree_param":{"num_deleted":"0","num_feature":"196","num_nodes":"9","size_leaf_vector":"1"}},{"base_weights":[3.493736E-3,1.5221225E-1,-4.6386898E-1,-3.1245926E-1,3.1577003E-1,-1.4476883E-1,-2.6307179E-2,-4.4639668E-1,2.8192705E-1,4.8943457E-1,4.6984073E-2,-3.179483E-2,-1.4043728E-1,1.0186732E-1,2.3548538E-2,-1.9726574E-2,1.5763089E-1,-3.007433E-1,3.143853E-1,5.8464844E-2,-1.3078552E-1,-8.6240344E-2,4.2667076E-1,1.499972E-1,-1.0760598E-2],"categories":[],"categories_nodes":[],"categories_segments":[],"categories_sizes":[],"default_left":[0,0,0,0,0,0,0,0,0,0,0,0,0,0,0,0,0,0,0,0,0,0,0,0,0],"id":40,"left_children":[1,3,5,7,9,-1,-1,11,13,15,17,-1,-1,-1,-1,-1,-1,19,21,-1,-1,-1,23,-1,-1],"loss_changes":[4.8011727E0,4.079874E0,7.495594E-2,1.2515954E0,1.8088243E0,0E0,0E0,3.8605213E-2,1.1019379E-2,5.089364E-1,1.6296388E0,0E0,0E0,0E0,0E0,0E0,0E0,6.001445E-1,7.8638816E-1,0E0,0E0,0E0,3.1229603E-1,0E0,0E0],"parents":[2147483647,0,0,1,1,2,2,3,3,4,4,7,7,8,8,9,9,10,10,17,17,18,18,22,22],"right_children":[2,4,6,8,10,-1,-1,12,14,16,18,-1,-1,-1,-1,-1,-1,20,22,-1,-1,-1,24,-1,-1],"split_conditions":[1.7460356E0,-5.270612E0,7.2767735E-1,-5.1472282E0,-2.8951892E-1,-1.4476883E-1,-2.6307179E-2,-2.7625075E-1,1.4263351E2,4.0025157E-1,4.221128E2,-3.179483E-2,-1.4043728E-1,1.0186732E-1,2.3548538E-2,-1.9726574E-2,1.5763089E-1,4.9795082E-1,3.647037E1,5.8464844E-2,-1.3078552E-1,-8.6240344E-2,2.4962608E1,1.499972E-1,-1.0760598E-2],"split_indices":[136,139,179,13,146,0,0,147,129,173,186,0,0,0,0,0,0,179,130,0,0,0,131,0,0],"split_type":[0,0,0,0,0,0,0,0,0,0,0,0,0,0,0,0,0,0,0,0,0,0,0,0,0],"sum_hessian":[6.7060326E1,5.1383884E1,1.5676442E1,1.3140636E1,3.8243248E1,1.4664884E1,1.0115584E0,1.0927289E1,2.213347E0,2.2733843E1,1.5509406E1,1.0082614E0,9.919027E0,1.2033118E0,1.0100352E0,1.3340914E0,2.1399752E1,6.6878567E0,8.821549E0,1.3388298E0,5.3490267E0,1.1417243E0,7.679825E0,6.5591288E0,1.1206963E0],"tree_param":{"num_deleted":"0","num_feature":"196","num_nodes":"25","size_leaf_vector":"1"}},{"base_weights":[-6.9468766E-3,-4.4171655E-1,3.7318227E-1,1.1118553E-1,-1.4899862E-1,-1.1510212E-1,4.538558E-1,-8.7090075E-2,4.926169E-1,7.486043E-2,5.259762E-1,1.0178331E-1,-8.2288854E-2,1.7463323E-2,1.6235277E-1],"categories":[],"categories_nodes":[],"categories_segments":[],"categories_sizes":[],"default_left":[0,0,0,0,0,0,0,0,0,0,0,0,0,0,0],"id":41,"left_children":[1,3,5,-1,-1,-1,7,-1,9,11,13,-1,-1,-1,-1],"loss_changes":[1.0815894E1,1.54634E0,2.3066626E0,0E0,0E0,0E0,1.0666032E0,0E0,3.899336E-1,4.110201E-1,1.7014647E-1,0E0,0E0,0E0,0E0],"parents":[2147483647,0,0,1,1,2,2,6,6,8,8,9,9,10,10],"right_children":[2,4,6,-1,-1,-1,8,-1,10,12,14,-1,-1,-1,-1],"split_conditions":[-3.3521667E0,3.0459562E-1,2.5585546E0,1.1118553E-1,-1.4899862E-1,-1.1510212E-1,-5.843113E0,-8.7090075E-2,-5.165062E1,-4.9029493E0,-2.4745337E1,1.0178331E-1,-8.2288854E-2,1.7463323E-2,1.6235277E-1],"split_indices":[141,175,135,0,0,0,3,0,101,7,17,0,0,0,0],"split_type":[0,0,0,0,0,0,0,0,0,0,0,0,0,0,0],"sum_hessian":[6.344692E1,2.9520763E1,3.3926155E1,1.5062706E0,2.8014492E1,2.9060986E0,3.1020058E1,1.2144732E0,2.9805584E1,2.4439678E0,2.7361616E1,1.4068501E0,1.0371178E0,1.0131189E0,2.6348497E1],"tree_param":{"num_deleted":"0","num_feature":"196","num_nodes":"15","size_leaf_vector":"1"}},{"base_weights":[6.3451473E-3,-3.013909E-1,3.7055036E-1,-4.501831E-1,7.570692E-2,4.5060936E-1,-9.5835075E-2,9.053658E-2,-1.4823298E-1,4.0096697E-1,-3.3928144E-1,4.8685423E-1,-5.2735265E-2,3.328372E-2,1.4320314E-1,-5.404409E-3,-1.2201952E-1,5.235989E-1,-5.5226713E-2,1.6146225E-1,3.1107211E-2],"categories":[],"categories_nodes":[],"categories_segments":[],"categories_sizes":[],"default_left":[0,0,0,0,0,0,0,0,0,0,0,0,0,0,0,0,0,0,0,0,0],"id":42,"left_children":[1,3,5,7,9,11,-1,-1,-1,13,15,17,-1,-1,-1,-1,-1,19,-1,-1,-1],"loss_changes":[7.739554E0,2.1348224E0,1.8905358E0,1.0406785E0,1.6814367E0,7.3820543E-1,0E0,0E0,0E0,9.9368215E-2,1.1342293E-1,7.7284527E-1,0E0,0E0,0E0,0E0,0E0,1.0536337E-1,0E0,0E0,0E0],"parents":[2147483647,0,0,1,1,2,2,3,3,4,4,5,5,9,9,10,10,11,11,17,17],"right_children":[2,4,6,8,10,12,-1,-1,-1,14,16,18,-1,-1,-1,-1,-1,20,-1,-1,-1],"split_conditions":[1.3973904E2,5.091333E-1,5.711931E-1,1.8571445E1,-7.2789984E0,-1.1781617E-1,-9.5835075E-2,9.053658E-2,-1.4823298E-1,6.136622E1,1.805144E1,1.2898772E1,-5.2735265E-2,3.328372E-2,1.4320314E-1,-5.404409E-3,-1.2201952E-1,3.9581972E-1,-5.5226713E-2,1.6146225E-1,3.1107211E-2],"split_indices":[129,183,174,131,141,155,0,0,0,130,193,4,0,0,0,0,0,153,0,0,0],"split_type":[0,0,0,0,0,0,0,0,0,0,0,0,0,0,0,0,0,0,0,0,0],"sum_hessian":[6.705796E1,3.64402E1,3.0617762E1,2.5991053E1,1.0449148E1,2.774547E1,2.8722913E0,1.1104972E0,2.4880554E1,5.8768063E0,4.5723424E0,2.6438435E1,1.3070354E0,1.7362928E0,4.140513E0,1.0132583E0,3.559084E0,2.52739E1,1.1645347E0,2.415193E1,1.12197E0],"tree_param":{"num_deleted":"0","num_feature":"196","num_nodes":"21","size_leaf_vector":"1"}},{"base_weights":[1.544202E-2,1.4203289E-1,-4.1063133E-1,-1.5074578E-1,3.567406E-1,-1.4425215E-1,9.203865E-2,3.989547E-1,-3.3783215E-1,-2.7667806E-1,4.2569372E-1,-1.4976944E-3,1.4352411E-1,-1.431295E-1,1.3787058E-2,-1.9619241E-2,-9.897622E-2,-4.5674887E-2,4.5458016E-1,3.3662197E-1,-9.129273E-2,3.5136988E-4,4.8253155E-1,2.4398003E-2,1.2232382E-1,1.7276114E-3,1.5202752E-1],"categories":[],"categories_nodes":[],"categories_segments":[],"categories_sizes":[],"default_left":[0,0,0,0,0,0,0,0,0,0,0,0,0,0,0,0,0,0,0,0,0,0,0,0,0,0,0],"id":43,"left_children":[1,3,5,7,9,-1,-1,11,13,15,17,-1,-1,-1,19,-1,-1,-1,21,23,-1,-1,25,-1,-1,-1,-1],"loss_changes":[3.8438594E0,3.5018291E0,9.702182E-1,2.5936651E0,1.512876E0,0E0,0E0,2.1197248E-1,9.066119E-1,2.0516783E-2,5.56695E-1,0E0,0E0,0E0,7.3772806E-1,0E0,0E0,0E0,3.5506153E-1,3.1209916E-2,0E0,0E0,3.023553E-1,0E0,0E0,0E0,0E0],"parents":[2147483647,0,0,1,1,2,2,3,3,4,4,7,7,8,8,9,9,10,10,14,14,18,18,19,19,22,22],"right_children":[2,4,6,8,10,-1,-1,12,14,16,18,-1,-1,-1,20,-1,-1,-1,22,24,-1,-1,26,-1,-1,-1,-1],"split_conditions":[7.818261E0,5.527822E-1,-2.2946333E1,1.0850796E2,-1.4370302E1,-1.4425215E-1,9.203865E-2,-2.386451E1,-1.0112553E0,-4.369115E-1,-6.0235506E-1,-1.4976944E-3,1.4352411E-1,-1.431295E-1,1.195091E1,-1.9619241E-2,-9.897622E-2,-4.5674887E-2,-4.965108E1,-3.7995186E-1,-9.129273E-2,3.5136988E-4,4.863426E0,2.4398003E-2,1.2232382E-1,1.7276114E-3,1.5202752E-1],"split_indices":[134,175,30,129,11,0,0,15,137,155,146,0,0,0,190,0,0,0,82,138,0,0,133,0,0,0,0],"split_type":[0,0,0,0,0,0,0,0,0,0,0,0,0,0,0,0,0,0,0,0,0,0,0,0,0,0,0],"sum_hessian":[6.91844E1,5.3851273E1,1.5333133E1,2.2909472E1,3.0941801E1,1.42667265E1,1.0664062E0,5.5296617E0,1.737981E1,2.7418654E0,2.8199936E1,1.0629741E0,4.466687E0,1.2193471E1,5.1863403E0,1.0003824E0,1.741483E0,1.1390884E0,2.7060846E1,2.5450928E0,2.6412473E0,1.631857E0,2.542899E1,1.0215944E0,1.5234985E0,1.2895207E0,2.413947E1],"tree_param":{"num_deleted":"0","num_feature":"196","num_nodes":"27","size_leaf_vector":"1"}},{"base_weights":[-2.0710832E-2,-1.4934647E-1,4.0543827E-1,4.9408808E-1,-1.034305E-1,-8.6373426E-2,1.6063578E-1],"categories":[],"categories_nodes":[],"categories_segments":[],"categories_sizes":[],"default_left":[0,0,0,0,0,0,0],"id":44,"left_children":[1,-1,3,5,-1,-1,-1],"loss_changes":[1.3020088E1,0E0,2.4216914E0,1.1467466E0,0E0,0E0,0E0],"parents":[2147483647,0,0,2,2,3,3],"right_children":[2,-1,4,6,-1,-1,-1],"split_conditions":[1.1490402E0,-1.4934647E-1,-3.5845766E0,-5.118161E0,-1.034305E-1,-8.6373426E-2,1.6063578E-1],"split_indices":[137,0,6,142,0,0,0],"split_type":[0,0,0,0,0,0,0],"sum_hessian":[6.204462E1,2.9192694E1,3.285193E1,2.9685476E1,3.1664524E0,1.1919125E0,2.8493563E1],"tree_param":{"num_deleted":"0","num_feature":"196","num_nodes":"7","size_leaf_vector":"1"}},{"base_weights":[5.2011963E-3,1.4532158E-1,-4.4774282E-1,4.086185E-1,-1.0931669E-1,-2.6063332E-2,-1.410413E-1,4.6842125E-1,-8.7643206E-2,2.0871587E-1,-3.3382177E-1,5.0094044E-1,-1.2227175E-2,-9.861265E-2,3.6741084E-1,-4.401216E-1,8.310872E-2,1.5417373E-1,4.134939E-2,-4.8796404E-2,1.438976E-1,-2.4229707E-2,-1.3973898E-1],"categories":[],"categories_nodes":[],"categories_segments":[],"categories_sizes":[],"default_left":[0,0,0,0,0,0,0,0,0,0,0,0,0,0,0,0,0,0,0,0,0,0,0],"id":45,"left_children":[1,3,5,7,9,-1,-1,11,-1,13,15,17,-1,-1,19,21,-1,-1,-1,-1,-1,-1,-1],"loss_changes":[3.5545812E0,2.9106293E0,6.611681E-2,1.0264173E0,1.6775649E0,0E0,0E0,3.5061884E-1,0E0,9.6800756E-1,1.0040791E0,1.7814636E-2,0E0,0E0,5.624294E-1,7.2710514E-2,0E0,0E0,0E0,0E0,0E0,0E0,0E0],"parents":[2147483647,0,0,1,1,2,2,3,3,4,4,7,7,9,9,10,10,11,11,14,14,15,15],"right_children":[2,4,6,8,10,-1,-1,12,-1,14,16,18,-1,-1,20,22,-1,-1,-1,-1,-1,-1,-1],"split_conditions":[1.7460356E0,-2.8951892E-1,-1.9591022E1,-4.3629026E0,2.7727E1,-2.6063332E-2,-1.410413E-1,1.2832756E1,-8.7643206E-2,4.0726706E2,-4.546019E1,1.7863554E1,-1.2227175E-2,-9.861265E-2,3.647037E1,-4.9501255E1,8.310872E-2,1.5417373E-1,4.134939E-2,-4.8796404E-2,1.438976E-1,-2.4229707E-2,-1.3973898E-1],"split_indices":[136,146,8,141,131,0,0,190,0,186,121,192,0,0,130,67,0,0,0,0,0,0,0],"split_type":[0,0,0,0,0,0,0,0,0,0,0,0,0,0,0,0,0,0,0,0,0,0,0],"sum_hessian":[5.398183E1,4.1746513E1,1.2235319E1,2.0227007E1,2.1519506E1,1.0000534E0,1.1235266E1,1.8942057E1,1.2849511E0,8.933993E0,1.2585512E1,1.7820135E1,1.1219212E0,1.7924589E0,7.1415343E0,1.0958088E1,1.6274244E0,1.6804487E1,1.0156481E0,1.1695455E0,5.9719887E0,1.007164E0,9.950924E0],"tree_param":{"num_deleted":"0","num_feature":"196","num_nodes":"23","size_leaf_vector":"1"}},{"base_weights":[-7.801054E-3,-4.310673E-1,3.5316545E-1,9.945295E-2,-1.4659458E-1,-2.5217128E-1,4.4767693E-1,1.7780984E-2,-1.08857796E-1,-4.3443225E-2,4.8099485E-1,1.7415382E-2,5.0998926E-1,4.120934E-2,1.5646294E-1],"categories":[],"categories_nodes":[],"categories_segments":[],"categories_sizes":[],"default_left":[0,0,0,0,0,0,0,0,0,0,0,0,0,0,0],"id":46,"left_children":[1,3,5,-1,-1,7,9,-1,-1,-1,11,-1,13,-1,-1],"loss_changes":[7.9555063E0,1.2140121E0,1.7213907E0,0E0,0E0,1.7444527E-1,5.568199E-1,0E0,0E0,0E0,2.597537E-1,0E0,2.2874832E-2,0E0,0E0],"parents":[2147483647,0,0,1,1,2,2,5,5,6,6,10,10,12,12],"right_children":[2,4,6,-1,-1,8,10,-1,-1,-1,12,-1,14,-1,-1],"split_conditions":[-3.3521667E0,3.0459562E-1,3.0214093E0,9.945295E-2,-1.4659458E-1,8.214081E-2,-3.3304527E0,1.7780984E-2,-1.08857796E-1,-4.3443225E-2,-5.165062E1,1.7415382E-2,4.5930403E-1,4.120934E-2,1.5646294E-1],"split_indices":[141,175,135,0,0,160,6,0,0,0,101,0,180,0,0],"split_type":[0,0,0,0,0,0,0,0,0,0,0,0,0,0,0],"sum_hessian":[5.0073544E1,2.2958454E1,2.711509E1,1.2778623E0,2.1680592E1,3.4364986E0,2.367859E1,1.0229033E0,2.4135952E0,1.0824897E0,2.25961E1,1.642276E0,2.0953825E1,1.0177933E0,1.9936031E1],"tree_param":{"num_deleted":"0","num_feature":"196","num_nodes":"15","size_leaf_vector":"1"}},{"base_weights":[7.1562375E-3,-2.2499225E-1,4.4156823E-1,2.347618E-1,-3.8285917E-1,4.843675E-1,-3.575829E-2,-1.0000318E-1,4.02363E-1,-4.6376282E-1,3.2195402E-3,1.2221886E-2,1.5350986E-1,-3.932318E-3,1.3984036E-1,1.1427823E-2,-1.4671388E-1,2.3741576E-1,-1.0063243E-1,1.2236585E-1,-4.051947E-2],"categories":[],"categories_nodes":[],"categories_segments":[],"categories_sizes":[],"default_left":[0,0,0,0,0,0,0,0,0,0,0,0,0,0,0,0,0,0,0,0,0],"id":47,"left_children":[1,3,5,7,9,11,-1,-1,13,15,17,-1,-1,-1,-1,-1,-1,19,-1,-1,-1],"loss_changes":[5.6248646E0,2.7296581E0,5.238154E-1,1.0783172E0,8.5903025E-1,2.0032072E-1,0E0,0E0,2.2099769E-1,3.067212E-1,5.356487E-1,0E0,0E0,0E0,0E0,0E0,0E0,3.0809665E-1,0E0,0E0,0E0],"parents":[2147483647,0,0,1,1,2,2,3,3,4,4,5,5,8,8,9,9,10,10,17,17],"right_children":[2,4,6,8,10,12,-1,-1,14,16,18,-1,-1,-1,-1,-1,-1,20,-1,-1,-1],"split_conditions":[5.033204E-1,-4.9940025E1,-4.025742E0,1.1487227E2,1.6679858E0,1.3466191E1,-3.575829E-2,-1.0000318E-1,4.9163508E-1,-4.9873234E1,4.805877E-1,1.2221886E-2,1.5350986E-1,-3.932318E-3,1.3984036E-1,1.1427823E-2,-1.4671388E-1,-4.249133E1,-1.0063243E-1,1.2236585E-1,-4.051947E-2],"split_indices":[147,107,142,129,9,191,0,0,177,95,174,0,0,0,0,0,0,69,0,0,0],"split_type":[0,0,0,0,0,0,0,0,0,0,0,0,0,0,0,0,0,0,0,0,0],"sum_hessian":[5.379048E1,3.537061E1,1.8419872E1,8.916398E0,2.645421E1,1.724027E1,1.1796012E0,1.805959E0,7.1104393E0,2.1704723E1,4.7494864E0,1.1450719E0,1.60952E1,1.0518843E0,6.058555E0,1.0167351E0,2.0687988E1,2.9845324E0,1.764954E0,1.982269E0,1.0022634E0],"tree_param":{"num_deleted":"0","num_feature":"196","num_nodes":"21","size_leaf_vector":"1"}},{"base_weights":[1.686676E-2,1.3405454E-1,-3.9455852E-1,-1.3040993E-1,3.4789014E-1,-1.404949E-1,7.204616E-2,3.4228602E-1,-3.3653057E-1,-3.0291885E-1,4.5184264E-1,1.31592E-1,-1.684961E-2,-1.4231445E-1,1.0006046E-1,-2.4294743E-2,-1.0462911E-1,5.010714E-1,-5.180372E-2,1.5744127E-1,1.9291967E-2],"categories":[],"categories_nodes":[],"categories_segments":[],"categories_sizes":[],"default_left":[0,0,0,0,0,0,0,0,0,0,0,0,0,0,0,0,0,0,0,0,0],"id":48,"left_children":[1,3,5,7,9,-1,-1,11,13,15,17,-1,-1,-1,-1,-1,-1,19,-1,-1,-1],"loss_changes":[2.8044147E0,2.5994658E0,7.166228E-1,2.153368E0,1.8447683E0,0E0,0E0,2.8753668E-1,1.5503343E0,1.32240355E-2,7.68106E-1,0E0,0E0,0E0,0E0,0E0,0E0,1.8191671E-1,0E0,0E0,0E0],"parents":[2147483647,0,0,1,1,2,2,3,3,4,4,7,7,8,8,9,9,10,10,17,17],"right_children":[2,4,6,8,10,-1,-1,12,14,16,18,-1,-1,-1,-1,-1,-1,20,-1,-1,-1],"split_conditions":[7.818261E0,1.1615704E1,-1.8653717E1,2.9406738E0,5.431623E0,-1.404949E-1,7.204616E-2,9.826109E0,1.622705E2,-4.653172E1,4.1159434E0,1.31592E-1,-1.684961E-2,-1.4231445E-1,1.0006046E-1,-2.4294743E-2,-1.0462911E-1,3.6769836E2,-5.180372E-2,1.5744127E-1,1.9291967E-2],"split_indices":[134,190,24,132,132,0,0,189,129,71,3,0,0,0,0,0,0,186,0,0,0],"split_type":[0,0,0,0,0,0,0,0,0,0,0,0,0,0,0,0,0,0,0,0,0],"sum_hessian":[5.6068928E1,4.416377E1,1.1905159E1,1.99189E1,2.424487E1,1.0900597E1,1.0045623E0,5.847722E0,1.40711775E1,3.0756054E0,2.1169264E1,4.627768E0,1.219954E0,1.1912488E1,2.1586897E0,1.0001745E0,2.0754309E0,1.9805721E1,1.3635415E0,1.8593805E1,1.2119174E0],"tree_param":{"num_deleted":"0","num_feature":"196","num_nodes":"21","size_leaf_vector":"1"}},{"base_weights":[-2.5044138E-2,-1.4697924E-1,3.8294432E-1,4.6656895E-1,-1.0763565E-1,-6.537071E-2,1.5380606E-1],"categories":[],"categories_nodes":[],"categories_segments":[],"categories_sizes":[],"default_left":[0,0,0,0,0,0,0],"id":49,"left_children":[1,-1,3,5,-1,-1,-1],"loss_changes":[9.59522E0,0E0,1.84076E0,8.9075184E-1,0E0,0E0,0E0],"parents":[2147483647,0,0,2,2,3,3],"right_children":[2,-1,4,6,-1,-1,-1],"split_conditions":[1.1490402E0,-1.4697924E-1,-3.3304527E0,-7.9043145E0,-1.0763565E-1,-6.537071E-2,1.5380606E-1],"split_indices":[137,0,6,141,0,0,0],"split_type":[0,0,0,0,0,0,0],"sum_hessian":[4.8600273E1,2.262226E1,2.5978012E1,2.3679314E1,2.298698E0,1.2596076E0,2.2419706E1],"tree_param":{"num_deleted":"0","num_feature":"196","num_nodes":"7","size_leaf_vector":"1"}},{"base_weights":[3.7946769E-3,1.3023478E-1,-1.3708147E-1,3.801697E-1,-1.00114815E-1,4.3913144E-1,-7.9815075E-2,2.0753348E-1,-3.220502E-1,-1.4258677E-2,4.768812E-1,-9.0471566E-2,3.5112938E-1,-4.2803946E-1,7.422846E-2,1.477826E-1,4.390885E-2,-4.2952355E-2,1.3834739E-1,-2.8479876E-2,-1.3633665E-1],"categories":[],"categories_nodes":[],"categories_segments":[],"categories_sizes":[],"default_left":[0,0,0,0,0,0,0,0,0,0,0,0,0,0,0,0,0,0,0,0,0],"id":50,"left_children":[1,3,-1,5,7,9,-1,11,13,-1,15,-1,17,19,-1,-1,-1,-1,-1,-1,-1],"loss_changes":[2.6373198E0,2.0818713E0,0E0,7.735064E-1,1.3822323E0,3.1974483E-1,0E0,7.40572E-1,8.0507624E-1,0E0,6.379366E-3,0E0,4.594522E-1,4.6014667E-2,0E0,0E0,0E0,0E0,0E0,0E0,0E0],"parents":[2147483647,0,0,1,1,3,3,4,4,5,5,7,7,8,8,10,10,12,12,13,13],"right_children":[2,4,-1,6,8,10,-1,12,14,-1,16,-1,18,20,-1,-1,-1,-1,-1,-1,-1],"split_conditions":[2.193772E0,-2.8951892E-1,-1.3708147E-1,-4.3629026E0,2.7727E1,3.6038235E-1,-7.9815075E-2,4.0726706E2,-4.546019E1,-1.4258677E-2,1.7840683E1,-9.0471566E-2,3.647037E1,-5.006617E1,7.422846E-2,1.477826E-1,4.390885E-2,-4.2952355E-2,1.3834739E-1,-2.8479876E-2,-1.3633665E-1],"split_indices":[136,146,0,141,131,173,0,186,121,0,192,0,130,74,0,0,0,0,0,0,0],"split_type":[0,0,0,0,0,0,0,0,0,0,0,0,0,0,0,0,0,0,0,0,0],"sum_hessian":[4.3250378E1,3.4499832E1,8.750545E0,1.6234549E1,1.8265284E1,1.517081E1,1.0637388E0,7.6817226E0,1.0583561E1,1.0734254E0,1.4097384E1,1.4479641E0,6.2337584E0,9.132263E0,1.4512975E0,1.2988908E1,1.1084768E0,1.0801095E0,5.1536493E0,1.0085243E0,8.123739E0],"tree_param":{"num_deleted":"0","num_feature":"196","num_nodes":"21","size_leaf_vector":"1"}},{"base_weights":[-5.9619653E-3,-4.1470897E-1,3.3562762E-1,8.9886904E-2,-1.4416613E-1,-1.0209168E-1,4.1697222E-1,4.6232554E-1,-1.1044916E-2,-1.7105272E-2,1.4940326E-1],"categories":[],"categories_nodes":[],"categories_segments":[],"categories_sizes":[],"default_left":[0,0,0,0,0,0,0,0,0,0,0],"id":51,"left_children":[1,3,5,-1,-1,-1,7,9,-1,-1,-1],"loss_changes":[5.8261642E0,1.0371747E0,1.3922689E0,0E0,0E0,0E0,4.44021E-1,3.793354E-1,0E0,0E0,0E0],"parents":[2147483647,0,0,1,1,2,2,6,6,7,7],"right_children":[2,4,6,-1,-1,-1,8,10,-1,-1,-1],"split_conditions":[-2.4112463E0,3.5707545E-1,2.5585546E0,8.9886904E-2,-1.4416613E-1,-1.0209168E-1,1.4700528E2,-3.7681031E0,-1.1044916E-2,-1.7105272E-2,1.4940326E-1],"split_indices":[142,175,135,0,0,0,129,3,0,0,0],"split_type":[0,0,0,0,0,0,0,0,0,0,0],"sum_hessian":[3.9730732E1,1.7989906E1,2.1740828E1,1.2186499E0,1.6771257E1,1.9933742E0,1.9747452E1,1.7936045E1,1.8114074E0,1.1147557E0,1.682129E1],"tree_param":{"num_deleted":"0","num_feature":"196","num_nodes":"11","size_leaf_vector":"1"}},{"base_weights":[8.391162E-3,-2.7240834E-1,3.2752335E-1,3.5997592E-2,-4.514771E-1,4.4298702E-1,-1.2708908E-1,-2.6202655E-1,3.4273186E-1,-2.0904E-2,-1.4202718E-1,-1.9497551E-2,4.7888184E-1,6.627058E-2,-1.11027084E-1,-1.1903033E-1,5.1746592E-2,2.2140848E-2,1.24507196E-1,3.0873548E-2,1.4944719E-1],"categories":[],"categories_nodes":[],"categories_segments":[],"categories_sizes":[],"default_left":[0,0,0,0,0,0,0,0,0,0,0,0,0,0,0,0,0,0,0,0,0],"id":52,"left_children":[1,3,5,7,9,11,13,15,17,-1,-1,-1,19,-1,-1,-1,-1,-1,-1,-1,-1],"loss_changes":[4.042397E0,1.342359E0,1.1639614E0,9.808073E-1,9.492564E-2,3.4202456E-1,5.0888216E-1,3.910529E-1,7.1175635E-2,0E0,0E0,0E0,6.50115E-2,0E0,0E0,0E0,0E0,0E0,0E0,0E0,0E0],"parents":[2147483647,0,0,1,1,2,2,3,3,4,4,5,5,6,6,7,7,8,8,12,12],"right_children":[2,4,6,8,10,12,14,16,18,-1,-1,-1,20,-1,-1,-1,-1,-1,-1,-1,-1],"split_conditions":[1.3973904E2,-7.2789984E0,4.859912E0,5.091333E-1,2.9116285E-1,-2.3532283E-1,-1.4488666E0,4.7684303E-1,6.136622E1,-2.0904E-2,-1.4202718E-1,-1.9497551E-2,3.395096E-1,6.627058E-2,-1.11027084E-1,-1.1903033E-1,5.1746592E-2,2.2140848E-2,1.24507196E-1,3.0873548E-2,1.4944719E-1],"split_indices":[129,141,6,183,180,145,155,146,130,0,0,0,174,0,0,0,0,0,0,0,0],"split_type":[0,0,0,0,0,0,0,0,0,0,0,0,0,0,0,0,0,0,0,0,0],"sum_hessian":[4.311429E1,2.3012423E1,2.0101868E1,8.74687E0,1.4265553E1,1.6050812E1,4.0510554E0,4.5103507E0,4.2365193E0,1.002393E0,1.326316E1,1.0058289E0,1.5044983E1,1.703086E0,2.3479693E0,3.509075E0,1.0012757E0,1.325715E0,2.9108043E0,1.0428607E0,1.4002122E1],"tree_param":{"num_deleted":"0","num_feature":"196","num_nodes":"21","size_leaf_vector":"1"}},{"base_weights":[1.8098649E-2,1.2854733E-1,-3.767762E-1,-6.8292156E-2,3.8875517E-1,-1.3621077E-1,5.051082E-2,-2.9987246E-1,2.9569903E-1,-5.273452E-2,4.57795E-1,-4.0329912E-1,6.2164184E-2,-8.4440365E-2,1.2685981E-1,2.920605E-2,1.4360078E-1,-9.089875E-3,-4.3531692E-1,-2.9360985E-2,-1.3802406E-1],"categories":[],"categories_nodes":[],"categories_segments":[],"categories_sizes":[],"default_left":[0,0,0,0,0,0,0,0,0,0,0,0,0,0,0,0,0,0,0,0,0],"id":53,"left_children":[1,3,5,7,9,-1,-1,11,13,-1,15,17,-1,-1,-1,-1,-1,-1,19,-1,-1],"loss_changes":[2.0538054E0,1.905076E0,5.1044333E-1,1.9204671E0,7.019372E-1,0E0,0E0,8.061644E-1,7.761732E-1,0E0,6.238389E-2,1.2753177E-1,0E0,0E0,0E0,0E0,0E0,0E0,4.5026302E-2,0E0,0E0],"parents":[2147483647,0,0,1,1,2,2,3,3,4,4,7,7,8,8,10,10,11,11,18,18],"right_children":[2,4,6,8,10,-1,-1,12,14,-1,16,18,-1,-1,-1,-1,-1,-1,20,-1,-1],"split_conditions":[7.818261E0,5.9061193E-1,-9.183263E0,2.865741E-3,-1.3993631E1,-1.3621077E-1,5.051082E-2,1.6907269E-1,-2.471418E0,-5.273452E-2,-4.9938786E1,-2.3420177E1,6.2164184E-2,-8.4440365E-2,1.2685981E-1,2.920605E-2,1.4360078E-1,-9.089875E-3,4.7287914E-1,-2.9360985E-2,-1.3802406E-1],"split_indices":[134,175,14,154,11,0,0,185,137,0,90,16,0,0,0,0,0,0,179,0,0],"split_type":[0,0,0,0,0,0,0,0,0,0,0,0,0,0,0,0,0,0,0,0,0],"sum_hessian":[4.498063E1,3.5676247E1,9.304382E0,2.0731234E1,1.4945013E1,8.295805E0,1.0085772E0,1.2777821E1,7.953414E0,1.4600589E0,1.3484954E1,1.0783137E1,1.994683E0,1.2169096E0,6.7365046E0,1.0482552E0,1.2436699E1,1.006302E0,9.776835E0,1.006984E0,8.769852E0],"tree_param":{"num_deleted":"0","num_feature":"196","num_nodes":"21","size_leaf_vector":"1"}},{"base_weights":[-2.8855165E-2,-1.4447258E-1,3.6121863E-1,4.4744474E-1,-1.0212632E-1,-2.9368332E-2,4.8312715E-1,1.4970009E-1,3.1236172E-2],"categories":[],"categories_nodes":[],"categories_segments":[],"categories_sizes":[],"default_left":[0,0,0,0,0,0,0,0,0],"id":54,"left_children":[1,-1,3,5,-1,-1,7,-1,-1],"loss_changes":[7.0739365E0,0E0,1.456682E0,4.2932153E-1,0E0,0E0,5.991268E-2,0E0,0E0],"parents":[2147483647,0,0,2,2,3,3,6,6],"right_children":[2,-1,4,6,-1,-1,8,-1,-1],"split_conditions":[1.1490402E0,-1.4447258E-1,1.297761E2,-7.645896E0,-1.0212632E-1,-2.9368332E-2,-2.9548883E0,1.4970009E-1,3.1236172E-2],"split_indices":[137,0,129,141,0,0,142,0,0],"split_type":[0,0,0,0,0,0,0,0,0],"sum_hessian":[3.8072525E1,1.7512695E1,2.055983E1,1.8632345E1,1.9274843E0,1.0371989E0,1.7595146E1,1.6583992E1,1.0111532E0],"tree_param":{"num_deleted":"0","num_feature":"196","num_nodes":"9","size_leaf_vector":"1"}},{"base_weights":[3.034929E-3,-2.2057171E-1,2.4341173E-1,-3.9319268E-1,1.5867111E-1,3.644738E-1,-1.0849785E-1,-1.3367511E-1,3.864969E-2,1.1781176E-1,-7.595564E-2,4.320434E-1,-4.0897775E-2,8.848235E-3,4.6443224E-1,3.9962854E-2,1.4493626E-1],"categories":[],"categories_nodes":[],"categories_segments":[],"categories_sizes":[],"default_left":[0,0,0,0,0,0,0,0,0,0,0,0,0,0,0,0,0],"id":55,"left_children":[1,3,5,7,9,11,-1,-1,-1,-1,-1,13,-1,-1,15,-1,-1],"loss_changes":[1.9846824E0,1.3151728E0,1.434874E0,4.2493463E-1,7.4507284E-1,5.7734966E-1,0E0,0E0,0E0,0E0,0E0,1.6544032E-1,0E0,0E0,1.39398575E-2,0E0,0E0],"parents":[2147483647,0,0,1,1,2,2,3,3,4,4,5,5,11,11,14,14],"right_children":[2,4,6,8,10,12,-1,-1,-1,-1,-1,14,-1,-1,16,-1,-1],"split_conditions":[4.7701705E-1,4.342505E2,-4.545057E0,2.2991896E0,4.8109132E-1,-2.3210135E0,-1.0849785E-1,-1.3367511E-1,3.864969E-2,1.1781176E-1,-7.595564E-2,-6.737959E-1,-4.0897775E-2,8.848235E-3,8.660855E0,3.9962854E-2,1.4493626E-1],"split_indices":[173,186,141,10,182,139,0,0,0,0,0,156,0,0,189,0,0],"split_type":[0,0,0,0,0,0,0,0,0,0,0,0,0,0,0,0,0],"sum_hessian":[3.4925545E1,1.813663E1,1.6788914E1,1.243828E1,5.6983485E0,1.4321181E1,2.467733E0,1.1436893E1,1.0013869E0,3.663237E0,2.0351117E0,1.2739603E1,1.5815781E0,1.0909681E0,1.1648635E1,1.056254E0,1.05923815E1],"tree_param":{"num_deleted":"0","num_feature":"196","num_nodes":"17","size_leaf_vector":"1"}},{"base_weights":[-6.001809E-3,-4.0148467E-1,3.1439802E-1,8.554945E-2,-1.4127597E-1,-2.2549182E-1,4.0552732E-1,-1.1002745E-2,-8.7372035E-2,-1.2494485E-2,4.3860155E-1,-1.8457884E-3,1.4279386E-1],"categories":[],"categories_nodes":[],"categories_segments":[],"categories_sizes":[],"default_left":[0,0,0,0,0,0,0,0,0,0,0,0,0],"id":56,"left_children":[1,3,5,-1,-1,7,9,-1,-1,-1,11,-1,-1],"loss_changes":[4.2734427E0,8.5362506E-1,1.0086168E0,0E0,0E0,3.0718252E-2,2.594471E-1,0E0,0E0,0E0,2.567885E-1,0E0,0E0],"parents":[2147483647,0,0,1,1,2,2,5,5,6,6,10,10],"right_children":[2,4,6,-1,-1,8,10,-1,-1,-1,12,-1,-1],"split_conditions":[-3.3521667E0,3.0459562E-1,3.0214093E0,8.554945E-2,-1.4127597E-1,1.2435695E-1,-1.8426374E0,-1.1002745E-2,-8.7372035E-2,-1.2494485E-2,-5.165062E1,-1.8457884E-3,1.4279386E-1],"split_indices":[141,175,135,0,0,150,6,0,0,0,101,0,0],"split_type":[0,0,0,0,0,0,0,0,0,0,0,0,0],"sum_hessian":[3.17293E1,1.4087473E1,1.7641829E1,1.008401E0,1.3079071E1,2.3348339E0,1.5306994E1,1.005386E0,1.3294479E0,1.0363206E0,1.4270674E1,1.1711189E0,1.3099555E1],"tree_param":{"num_deleted":"0","num_feature":"196","num_nodes":"13","size_leaf_vector":"1"}},{"base_weights":[1.07933E-2,-1.95701E-1,3.980456E-1,1.8674621E-1,-3.7492433E-1,4.4640225E-1,-1.397544E-2,-8.6493365E-2,3.1378692E-1,-1.4071402E-1,-7.858746E-3,1.4030048E-1,3.4215316E-2,-9.254618E-3,1.1559121E-1,6.5941855E-2,-7.523719E-2],"categories":[],"categories_nodes":[],"categories_segments":[],"categories_sizes":[],"default_left":[0,0,0,0,0,0,0,0,0,0,0,0,0,0,0,0,0],"id":57,"left_children":[1,3,5,7,9,11,-1,-1,13,-1,15,-1,-1,-1,-1,-1,-1],"loss_changes":[2.9509661E0,1.7221787E0,2.965443E-1,5.949366E-1,5.7484007E-1,2.9082537E-2,0E0,0E0,1.8624091E-1,0E0,3.003837E-1,0E0,0E0,0E0,0E0,0E0,0E0],"parents":[2147483647,0,0,1,1,2,2,3,3,4,4,5,5,8,8,10,10],"right_children":[2,4,6,8,10,12,-1,-1,14,-1,16,-1,-1,-1,-1,-1,-1],"split_conditions":[5.033204E-1,-4.9610134E1,-4.6185184E-1,1.1487227E2,1.6679858E0,-4.4474583E1,-1.397544E-2,-8.6493365E-2,5.031348E-1,-1.4071402E-1,4.26489E0,1.4030048E-1,3.4215316E-2,-9.254618E-3,1.1559121E-1,6.5941855E-2,-7.523719E-2],"split_indices":[147,107,155,129,9,109,0,0,177,0,9,0,0,0,0,0,0],"split_type":[0,0,0,0,0,0,0,0,0,0,0,0,0,0,0,0,0],"sum_hessian":[3.4928894E1,2.3103872E1,1.1825021E1,7.3588157E0,1.5745056E1,1.0661521E1,1.1634997E0,1.2848383E0,6.0739775E0,1.2310572E1,3.4344845E0,9.63769E0,1.0238318E0,1.141556E0,4.9324217E0,1.8220937E0,1.6123908E0],"tree_param":{"num_deleted":"0","num_feature":"196","num_nodes":"17","size_leaf_vector":"1"}},{"base_weights":[1.9349074E-2,1.1091445E-1,-1.232857E-1,-9.950586E-2,3.4380078E-1,-3.3077356E-1,1.8144044E-1,-9.392101E-2,4.4119292E-1,6.612534E-2,-1.2880306E-1,-9.181833E-2,3.257155E-1,-4.540007E-4,1.442457E-1,4.0689972E-1,-1.903947E-2,3.651174E-2,1.3224377E-1],"categories":[],"categories_nodes":[],"categories_segments":[],"categories_sizes":[],"default_left":[0,0,0,0,0,0,0,0,0,0,0,0,0,0,0,0,0,0,0],"id":58,"left_children":[1,3,-1,5,7,9,11,-1,13,-1,-1,-1,15,-1,-1,17,-1,-1,-1],"loss_changes":[1.5329305E0,1.5980941E0,0E0,1.1997142E0,1.1215656E0,6.366018E-1,7.0214367E-1,0E0,2.4286294E-1,0E0,0E0,0E0,2.499597E-1,0E0,0E0,4.4242144E-3,0E0,0E0,0E0],"parents":[2147483647,0,0,1,1,3,3,4,4,5,5,6,6,8,8,12,12,15,15],"right_children":[2,4,-1,6,8,10,12,-1,14,-1,-1,-1,16,-1,-1,18,-1,-1,-1],"split_conditions":[3.316901E0,1.2294711E1,-1.232857E-1,-2.0654547E1,5.354706E0,2.9406738E0,-1.6529733E0,-9.392101E-2,4.9599192E-1,6.612534E-2,-1.2880306E-1,-9.181833E-2,-3.3548477E2,-4.540007E-4,1.442457E-1,4.8371065E-1,-1.903947E-2,3.651174E-2,1.3224377E-1],"split_indices":[136,190,0,25,132,132,154,0,175,0,0,0,128,0,0,184,0,0,0],"split_type":[0,0,0,0,0,0,0,0,0,0,0,0,0,0,0,0,0,0,0],"sum_hessian":[3.674932E1,3.091339E1,5.8359303E0,1.654089E1,1.4372499E1,8.9753E0,7.5655894E0,1.5698645E0,1.2802635E1,1.1740415E0,7.8012586E0,1.4716275E0,6.093962E0,1.1308193E0,1.1671816E1,5.0044823E0,1.08948E0,1.0195168E0,3.984965E0],"tree_param":{"num_deleted":"0","num_feature":"196","num_nodes":"19","size_leaf_vector":"1"}},{"base_weights":[-3.3309292E-2,-1.4174782E-1,3.399049E-1,4.3280083E-1,-8.666524E-2,-4.2878754E-2,1.449294E-1],"categories":[],"categories_nodes":[],"categories_segments":[],"categories_sizes":[],"default_left":[0,0,0,0,0,0,0],"id":59,"left_children":[1,-1,3,5,-1,-1,-1],"loss_changes":[5.2330365E0,0E0,1.1362193E0,5.174079E-1,0E0,0E0,0E0],"parents":[2147483647,0,0,2,2,3,3],"right_children":[2,-1,4,6,-1,-1,-1],"split_conditions":[1.1490402E0,-1.4174782E-1,-3.5845766E0,-4.907935E0,-8.666524E-2,-4.2878754E-2,1.449294E-1],"split_indices":[137,0,6,142,0,0,0],"split_type":[0,0,0,0,0,0,0],"sum_hessian":[2.9946554E1,1.3635197E1,1.631136E1,1.4483316E1,1.8280426E0,1.0156705E0,1.3467646E1],"tree_param":{"num_deleted":"0","num_feature":"196","num_nodes":"7","size_leaf_vector":"1"}},{"base_weights":[2.0904487E-3,1.1745471E-1,-1.2824148E-1,-2.3943253E-1,2.4729066E-1,-1.176438E-1,7.098598E-2,3.4237903E-1,-1.2740175E-1,4.045191E-1,-3.7502233E-2,6.934019E-2,-9.460322E-2,4.4791716E-1,1.9035443E-3,1.4003168E-1,3.9192535E-2],"categories":[],"categories_nodes":[],"categories_segments":[],"categories_sizes":[],"default_left":[0,0,0,0,0,0,0,0,0,0,0,0,0,0,0,0,0],"id":60,"left_children":[1,3,-1,5,7,-1,-1,9,11,13,-1,-1,-1,15,-1,-1,-1],"loss_changes":[1.5066999E0,1.1691151E0,0E0,5.94247E-1,6.869117E-1,0E0,0E0,4.7669172E-1,3.682572E-1,2.2501636E-1,0E0,0E0,0E0,1.006484E-2,0E0,0E0,0E0],"parents":[2147483647,0,0,1,1,3,3,4,4,7,7,8,8,9,9,13,13],"right_children":[2,4,-1,6,8,-1,-1,10,12,14,-1,-1,-1,16,-1,-1,-1],"split_conditions":[2.193772E0,-5.2291074E0,-1.2824148E-1,4.8155956E-2,1.2832756E1,-1.176438E-1,7.098598E-2,-1.1073539E0,-8.25216E0,1.2921991E2,-3.7502233E-2,6.934019E-2,-9.460322E-2,-5.359707E0,1.9035443E-3,1.4003168E-1,3.9192535E-2],"split_indices":[136,139,0,144,190,0,0,140,142,129,0,0,0,141,0,0,0],"split_type":[0,0,0,0,0,0,0,0,0,0,0,0,0,0,0,0,0],"sum_hessian":[2.8390757E1,2.295301E1,5.437747E0,5.8976626E0,1.7055347E1,4.598696E0,1.2989668E0,1.3671956E1,3.3833907E0,1.2186273E1,1.4856836E0,1.0845642E0,2.2988265E0,1.0875946E1,1.3103268E0,9.821107E0,1.0548393E0],"tree_param":{"num_deleted":"0","num_feature":"196","num_nodes":"17","size_leaf_vector":"1"}},{"base_weights":[-4.1310196E-3,-3.7006533E-1,3.0618703E-1,8.406597E-2,-1.3516262E-1,-8.620506E-2,3.8192508E-1,1.3865197E-1,-2.2140848E-2],"categories":[],"categories_nodes":[],"categories_segments":[],"categories_sizes":[],"default_left":[0,0,0,0,0,0,0,0,0],"id":61,"left_children":[1,3,5,-1,-1,-1,7,-1,-1],"loss_changes":[3.1417503E0,7.9039E-1,7.8307796E-1,0E0,0E0,0E0,5.35604E-1,0E0,0E0],"parents":[2147483647,0,0,1,1,2,2,6,6],"right_children":[2,4,6,-1,-1,-1,8,-1,-1],"split_conditions":[-3.1583045E0,3.206418E-1,-4.267983E0,8.406597E-2,-1.3516262E-1,-8.620506E-2,1.4415498E2,1.3865197E-1,-2.2140848E-2],"split_indices":[141,176,3,0,0,0,129,0,0],"split_type":[0,0,0,0,0,0,0,0,0],"sum_hessian":[2.5669138E1,1.169068E1,1.3978457E1,1.0141256E0,1.0676554E1,1.2656808E0,1.2712777E1,1.0797352E1,1.915425E0],"tree_param":{"num_deleted":"0","num_feature":"196","num_nodes":"9","size_leaf_vector":"1"}},{"base_weights":[1.1953246E-2,-2.1728803E-1,3.248424E-1,8.348858E-2,-4.2970893E-1,4.0198323E-1,-6.617109E-2,2.7739444E-1,-8.501384E-2,-1.3599531E-1,-3.0824414E-2,1.3888206E-1,1.3675309E-2,-1.2270851E-2,1.12935096E-1],"categories":[],"categories_nodes":[],"categories_segments":[],"categories_sizes":[],"default_left":[0,0,0,0,0,0,0,0,0,0,0,0,0,0,0],"id":62,"left_children":[1,3,5,7,9,11,-1,13,-1,-1,-1,-1,-1,-1,-1],"loss_changes":[2.1895747E0,1.1635249E0,6.3111544E-1,6.578649E-1,3.4525752E-2,2.3198497E-1,0E0,1.9929066E-1,0E0,0E0,0E0,0E0,0E0,0E0,0E0],"parents":[2147483647,0,0,1,1,2,2,3,3,4,4,5,5,7,7],"right_children":[2,4,6,8,10,12,-1,14,-1,-1,-1,-1,-1,-1,-1],"split_conditions":[1.4298137E2,-7.2789984E0,5.711931E-1,-4.983728E1,1.4880325E1,-3.7767E0,-6.617109E-2,-2.2876554E0,-8.501384E-2,-1.3599531E-1,-3.0824414E-2,1.3888206E-1,1.3675309E-2,-1.2270851E-2,1.12935096E-1],"split_indices":[129,141,174,124,134,140,0,139,0,0,0,0,0,0,0],"split_type":[0,0,0,0,0,0,0,0,0,0,0,0,0,0,0],"sum_hessian":[2.8542393E1,1.6649511E1,1.1892882E1,7.14274E0,9.506771E0,1.064962E1,1.2432629E0,4.8324585E0,2.3102813E0,8.506114E0,1.0006565E0,8.838913E0,1.8107072E0,1.286288E0,3.5461705E0],"tree_param":{"num_deleted":"0","num_feature":"196","num_nodes":"15","size_leaf_vector":"1"}},{"base_weights":[2.0695923E-2,1.1938856E-1,-3.4310085E-1,2.7685064E-1,-1.4719002E-1,-1.2589625E-1,1.6108682E-2,-4.5284495E-2,4.024668E-1,-3.5007203E-1,2.6235032E-1,-1.0757315E-1,9.578072E-2,1.4182903E-1,-4.969785E-2,1.0523868E-2,-1.2738328E-1,1.0809318E-1,-2.9154224E-3],"categories":[],"categories_nodes":[],"categories_segments":[],"categories_sizes":[],"default_left":[0,0,0,0,0,0,0,0,0,0,0,0,0,0,0,0,0,0,0],"id":63,"left_children":[1,3,5,7,9,-1,-1,11,13,15,17,-1,-1,-1,-1,-1,-1,-1,-1],"loss_changes":[1.1559178E0,1.0972401E0,2.31668E-1,6.7254543E-1,9.2264533E-1,0E0,0E0,7.3525906E-1,5.469649E-1,2.1915692E-1,1.070196E-1,0E0,0E0,0E0,0E0,0E0,0E0,0E0,0E0],"parents":[2147483647,0,0,1,1,2,2,3,3,4,4,7,7,8,8,9,9,10,10],"right_children":[2,4,6,8,10,-1,-1,12,14,16,18,-1,-1,-1,-1,-1,-1,-1,-1],"split_conditions":[7.818261E0,3.6769836E2,-2.5536879E1,1.1872915E1,1.6907269E-1,-1.2589625E-1,1.6108682E-2,1.622705E2,4.1159434E0,-5.6616854E-2,1.004799E-2,-1.0757315E-1,9.578072E-2,1.4182903E-1,-4.969785E-2,1.0523868E-2,-1.2738328E-1,1.0809318E-1,-2.9154224E-3],"split_indices":[134,186,29,190,185,0,0,129,3,163,146,0,0,0,0,0,0,0,0],"split_type":[0,0,0,0,0,0,0,0,0,0,0,0,0,0,0,0,0,0,0],"sum_hessian":[3.0053745E1,2.4168907E1,5.8848376E0,1.51698675E1,8.99904E0,4.884813E0,1.0000248E0,4.435302E0,1.0734566E1,6.1149597E0,2.8840797E0,2.3941736E0,2.0411284E0,9.701958E0,1.0326077E0,1.0773807E0,5.037579E0,1.8820832E0,1.0019966E0],"tree_param":{"num_deleted":"0","num_feature":"196","num_nodes":"19","size_leaf_vector":"1"}},{"base_weights":[-3.8363587E-2,-1.3872719E-1,3.1830448E-1,4.1318366E-1,-8.002553E-2,-2.811498E-2,1.4127648E-1],"categories":[],"categories_nodes":[],"categories_segments":[],"categories_sizes":[],"default_left":[0,0,0,0,0,0,0],"id":64,"left_children":[1,-1,3,5,-1,-1,-1],"loss_changes":[3.8810713E0,0E0,8.8742423E-1,4.082148E-1,0E0,0E0,0E0],"parents":[2147483647,